// Neural Network File Format by Kyle Julian, Stanford 2016
2,60,1,60,
60,60,1,
0,
-3.4028235e+38,-3.4028235e+38,-3.4028235e+38,-3.4028235e+38,-3.4028235e+38,-3.4028235e+38,-3.4028235e+38,-3.4028235e+38,-3.4028235e+38,-3.4028235e+38,-3.4028235e+38,-3.4028235e+38,-3.4028235e+38,-3.4028235e+38,-3.4028235e+38,-3.4028235e+38,-3.4028235e+38,-3.4028235e+38,-3.4028235e+38,-3.4028235e+38,-3.4028235e+38,-3.4028235e+38,-3.4028235e+38,-3.4028235e+38,-3.4028235e+38,-3.4028235e+38,-3.4028235e+38,-3.4028235e+38,-3.4028235e+38,-3.4028235e+38,-3.4028235e+38,-3.4028235e+38,-3.4028235e+38,-3.4028235e+38,-3.4028235e+38,-3.4028235e+38,-3.4028235e+38,-3.4028235e+38,-3.4028235e+38,-3.4028235e+38,-3.4028235e+38,-3.4028235e+38,-3.4028235e+38,-3.4028235e+38,-3.4028235e+38,-3.4028235e+38,-3.4028235e+38,-3.4028235e+38,-3.4028235e+38,-3.4028235e+38,-3.4028235e+38,-3.4028235e+38,-3.4028235e+38,-3.4028235e+38,-3.4028235e+38,-3.4028235e+38,-3.4028235e+38,-3.4028235e+38,-3.4028235e+38,-3.4028235e+38,
3.4028235e+38,3.4028235e+38,3.4028235e+38,3.4028235e+38,3.4028235e+38,3.4028235e+38,3.4028235e+38,3.4028235e+38,3.4028235e+38,3.4028235e+38,3.4028235e+38,3.4028235e+38,3.4028235e+38,3.4028235e+38,3.4028235e+38,3.4028235e+38,3.4028235e+38,3.4028235e+38,3.4028235e+38,3.4028235e+38,3.4028235e+38,3.4028235e+38,3.4028235e+38,3.4028235e+38,3.4028235e+38,3.4028235e+38,3.4028235e+38,3.4028235e+38,3.4028235e+38,3.4028235e+38,3.4028235e+38,3.4028235e+38,3.4028235e+38,3.4028235e+38,3.4028235e+38,3.4028235e+38,3.4028235e+38,3.4028235e+38,3.4028235e+38,3.4028235e+38,3.4028235e+38,3.4028235e+38,3.4028235e+38,3.4028235e+38,3.4028235e+38,3.4028235e+38,3.4028235e+38,3.4028235e+38,3.4028235e+38,3.4028235e+38,3.4028235e+38,3.4028235e+38,3.4028235e+38,3.4028235e+38,3.4028235e+38,3.4028235e+38,3.4028235e+38,3.4028235e+38,3.4028235e+38,3.4028235e+38,
0.0,0.0,0.0,0.0,0.0,0.0,0.0,0.0,0.0,0.0,0.0,0.0,0.0,0.0,0.0,0.0,0.0,0.0,0.0,0.0,0.0,0.0,0.0,0.0,0.0,0.0,0.0,0.0,0.0,0.0,0.0,0.0,0.0,0.0,0.0,0.0,0.0,0.0,0.0,0.0,0.0,0.0,0.0,0.0,0.0,0.0,0.0,0.0,0.0,0.0,0.0,0.0,0.0,0.0,0.0,0.0,0.0,0.0,0.0,0.0,0.0,
1.0,1.0,1.0,1.0,1.0,1.0,1.0,1.0,1.0,1.0,1.0,1.0,1.0,1.0,1.0,1.0,1.0,1.0,1.0,1.0,1.0,1.0,1.0,1.0,1.0,1.0,1.0,1.0,1.0,1.0,1.0,1.0,1.0,1.0,1.0,1.0,1.0,1.0,1.0,1.0,1.0,1.0,1.0,1.0,1.0,1.0,1.0,1.0,1.0,1.0,1.0,1.0,1.0,1.0,1.0,1.0,1.0,1.0,1.0,1.0,1.0,
1.397514939308166504e-01,2.405600622296333313e-02,6.877413392066955566e-02,-2.060729078948497772e-02,1.752654165029525757e-01,-2.304947674274444580e-01,-6.124669313430786133e-02,-6.863401085138320923e-02,1.683491319417953491e-01,-1.022497937083244324e-01,-9.600137360394001007e-03,1.879916153848171234e-02,4.672159254550933838e-02,-1.382813453674316406e-01,-2.922287024557590485e-02,5.114130303263664246e-02,-1.101855263113975525e-01,1.097996681928634644e-01,-8.570277690887451172e-02,-1.616279035806655884e-01,-1.423381567001342773e-01,1.663689734414219856e-03,-1.606592983007431030e-01,-1.190450116991996765e-01,-1.878001838922500610e-01,2.128714695572853088e-02,1.364118456840515137e-01,1.659553684294223785e-02,-2.017960250377655029e-01,-3.547159954905509949e-02,-1.169414892792701721e-01,1.979161798954010010e-01,-1.117513403296470642e-01,-1.062294244766235352e-01,1.234507411718368530e-01,5.091047286987304688e-02,-7.244417071342468262e-02,1.409132629632949829e-01,1.825117021799087524e-01,-1.345868259668350220e-01,4.803351685404777527e-02,-2.648064494132995605e-02,6.749609857797622681e-02,-5.961620062589645386e-02,2.993997745215892792e-02,-1.527688950300216675e-01,4.792658239603042603e-02,-2.262727916240692139e-01,1.283759623765945435e-01,-1.424708068370819092e-01,-1.263110339641571045e-01,6.731456518173217773e-02,5.159302055835723877e-02,-1.767024695873260498e-01,1.596801429986953735e-01,-1.640789210796356201e-01,-2.159890532493591309e-01,1.172771155834197998e-01,-1.142993792891502380e-01,-1.675835847854614258e-01,
-9.092913866043090820e-01,-4.379749298095703125e-01,-5.644400715827941895e-01,-1.077044382691383362e-01,-5.438278615474700928e-02,2.219950109720230103e-01,2.252587974071502686e-01,4.672535955905914307e-01,8.413546532392501831e-02,5.906291678547859192e-02,-1.385337710380554199e-01,2.019598148763179779e-02,1.699360907077789307e-01,2.682084590196609497e-02,-3.796662390232086182e-01,1.809943467378616333e-01,4.559608995914459229e-01,3.618661165237426758e-01,-1.891882419586181641e-01,-9.042751789093017578e-02,-1.089038252830505371e-01,5.791503190994262695e-02,2.318869978189468384e-01,-2.298770695924758911e-01,-1.777965128421783447e-01,-8.141060173511505127e-02,-3.214714825153350830e-01,-7.552626077085733414e-03,3.953276574611663818e-02,1.390228420495986938e-01,3.820163905620574951e-01,1.657819002866744995e-01,-1.495153158903121948e-01,1.141138747334480286e-01,-2.203975170850753784e-01,3.369713127613067627e-01,3.325879871845245361e-01,-3.014689385890960693e-01,-3.966623544692993164e-01,2.758990526199340820e-01,3.380468785762786865e-01,-2.721528708934783936e-01,-4.381147399544715881e-02,-3.097644746303558350e-01,-3.394989073276519775e-01,-3.248028755187988281e-01,3.086288571357727051e-01,-3.490154147148132324e-01,-5.980435013771057129e-01,6.193925142288208008e-01,-2.885695099830627441e-01,-8.605187535285949707e-01,-1.062327027320861816e+00,-3.273730874061584473e-01,4.548102915287017822e-01,-8.530051708221435547e-01,1.108945719897747040e-02,-1.487585186958312988e+00,-8.825882673263549805e-01,-7.932156920433044434e-01,
-7.368415594100952148e-01,-1.315129101276397705e-01,-9.719559550285339355e-02,-2.968609631061553955e-01,1.502702981233596802e-01,2.678940892219543457e-01,2.993281483650207520e-01,4.390226304531097412e-01,-9.376336634159088135e-02,-7.509948313236236572e-02,-1.822689473628997803e-01,-9.136705100536346436e-02,9.333188086748123169e-02,5.616840720176696777e-02,5.409264937043190002e-02,-7.656598836183547974e-02,9.047623723745346069e-02,1.507826894521713257e-02,2.204612493515014648e-01,9.496722370386123657e-02,-1.335680484771728516e-01,-1.221572309732437134e-01,-9.142629802227020264e-02,-2.158483415842056274e-01,2.436855882406234741e-01,-1.139069497585296631e-01,7.003989070653915405e-02,3.645585849881172180e-02,-1.163633540272712708e-01,1.157179623842239380e-01,5.442639589309692383e-01,-1.497040092945098877e-01,1.386291384696960449e-01,1.794356107711791992e-01,-1.194207891821861267e-01,3.522235155105590820e-01,2.578508853912353516e-01,-9.524463862180709839e-02,8.465079963207244873e-02,-4.723523743450641632e-03,-3.524215891957283020e-02,2.324642837047576904e-01,-2.372384965419769287e-01,-4.885051771998405457e-02,-1.153365802019834518e-02,-2.460166439414024353e-02,4.873044043779373169e-02,-3.297308683395385742e-01,-4.200917780399322510e-01,6.930981874465942383e-01,-4.410743415355682373e-01,-8.165160417556762695e-01,-9.124196767807006836e-01,-4.365213513374328613e-01,3.239690363407135010e-01,-2.119303345680236816e-01,3.494908511638641357e-01,-1.073613882064819336e+00,-9.536966085433959961e-01,-8.158502578735351562e-01,
-2.351105660200119019e-01,-5.291321873664855957e-01,-7.062283158302307129e-02,1.507127434015274048e-01,2.219244241714477539e-01,4.470121860504150391e-01,6.535325646400451660e-01,3.449246585369110107e-01,-4.491978138685226440e-02,-2.252819575369358063e-02,-7.462534308433532715e-02,-3.485803306102752686e-02,1.843530535697937012e-01,-9.037248790264129639e-02,-2.764795720577239990e-01,6.826570630073547363e-02,5.342431664466857910e-01,1.847637444734573364e-01,-2.589347064495086670e-01,-1.935155689716339111e-01,1.780107468366622925e-01,2.140050828456878662e-01,-3.398436307907104492e-02,-4.447233676910400391e-01,1.854860484600067139e-01,-2.360745966434478760e-01,-2.212831825017929077e-01,2.166822701692581177e-01,1.662790924310684204e-01,1.780129373073577881e-01,4.521691799163818359e-01,-3.910098969936370850e-02,1.257431656122207642e-01,2.365218400955200195e-01,-7.381660491228103638e-02,8.187472224235534668e-01,-1.416614353656768799e-01,-3.735300302505493164e-01,-4.726323783397674561e-01,-5.091236531734466553e-02,-2.868185043334960938e-01,-1.628129333257675171e-01,-2.342148721218109131e-01,-2.440843582153320312e-01,-5.762057900428771973e-01,-6.266968846321105957e-01,-1.294480264186859131e-01,-2.629322409629821777e-01,-8.523387312889099121e-01,9.195795655250549316e-01,-5.210484266281127930e-01,-1.091053366661071777e+00,-1.208265662193298340e+00,-2.700905203819274902e-01,1.826481968164443970e-01,-9.485025703907012939e-02,5.458422899246215820e-01,-1.414843559265136719e+00,-5.677376985549926758e-01,-3.029728531837463379e-01,
5.637408494949340820e-01,5.229819416999816895e-01,1.436749398708343506e-01,2.547844648361206055e-01,1.686501502990722656e-01,-1.162320673465728760e-01,-1.561935693025588989e-01,-3.319070339202880859e-01,1.705655306577682495e-01,-2.282751649618148804e-01,2.328305691480636597e-01,1.941004395484924316e-01,1.793223768472671509e-01,1.469883769750595093e-01,1.020429506897926331e-01,-3.048751875758171082e-02,-2.956471741199493408e-01,-1.147572845220565796e-01,-1.509500294923782349e-02,9.069389849901199341e-02,1.045212000608444214e-01,5.474039167165756226e-02,9.134254604578018188e-02,2.842604517936706543e-01,-9.939853847026824951e-02,-2.199598252773284912e-01,1.572984457015991211e-01,1.214926838874816895e-01,-4.108966514468193054e-02,1.701450198888778687e-01,-2.682324051856994629e-01,7.076042145490646362e-02,2.750985622406005859e-01,-1.390045881271362305e-01,1.325747519731521606e-01,-3.273241221904754639e-01,-1.277295649051666260e-01,-5.859344452619552612e-02,1.436464935541152954e-01,4.024777561426162720e-02,2.168569564819335938e-01,-2.164064794778823853e-01,-4.111754149198532104e-02,2.297841198742389679e-02,1.926085203886032104e-01,7.388366758823394775e-02,-3.030938208103179932e-01,3.725485801696777344e-01,6.519900560379028320e-01,-9.272292852401733398e-01,3.267893195152282715e-01,7.683308720588684082e-01,8.397522568702697754e-01,3.885010480880737305e-01,-2.279246300458908081e-01,2.591004967689514160e-01,-8.978790044784545898e-02,1.038503408432006836e+00,9.785486459732055664e-01,6.443263292312622070e-01,
3.086835443973541260e-01,2.812479734420776367e-01,3.854356706142425537e-01,2.803723216056823730e-01,7.438755035400390625e-02,6.464970111846923828e-02,-4.807001724839210510e-02,-8.084982633590698242e-02,2.703427374362945557e-01,3.068246319890022278e-02,4.060512408614158630e-02,3.528790473937988281e-01,2.355040013790130615e-01,-1.702505350112915039e-01,2.435587793588638306e-01,1.136364713311195374e-01,-3.121625483036041260e-01,-2.033600360155105591e-01,-2.573066204786300659e-02,-4.435952752828598022e-02,2.565922439098358154e-01,-8.256569504737854004e-02,8.895333856344223022e-02,1.356564164161682129e-01,9.299418330192565918e-02,-1.713907420635223389e-01,2.127903848886489868e-01,1.758885830640792847e-01,-1.610832959413528442e-01,-5.343116074800491333e-02,-2.224064469337463379e-01,-1.073834020644426346e-03,6.954853981733322144e-02,8.124613203108310699e-03,1.689696162939071655e-01,-5.457906424999237061e-02,9.728665649890899658e-02,-7.615519315004348755e-02,2.101285606622695923e-01,-1.786272376775741577e-01,-2.034143507480621338e-01,-1.752512156963348389e-01,-4.514860920608043671e-03,2.749262750148773193e-01,1.280588060617446899e-01,-6.542526185512542725e-02,8.531317859888076782e-02,4.459011852741241455e-01,6.868028640747070312e-01,-6.489873528480529785e-01,3.002372980117797852e-01,9.526184797286987305e-01,1.131017088890075684e+00,5.875160098075866699e-01,-2.977941334247589111e-01,5.804404020309448242e-01,-2.352328896522521973e-01,1.412920236587524414e+00,9.264364242553710938e-01,6.232204437255859375e-01,
2.291485480964183807e-02,-1.278600990772247314e-01,2.824630141258239746e-01,-3.388960659503936768e-01,-4.453656077384948730e-01,-5.615347623825073242e-01,-1.811261922121047974e-01,-1.386425048112869263e-01,-1.562524437904357910e-01,-4.136120676994323730e-01,-1.699732542037963867e-01,-5.392170548439025879e-01,-4.086579084396362305e-01,3.639488294720649719e-02,3.306077420711517334e-01,2.953665889799594879e-02,3.664144873619079590e-02,1.113716512918472290e-01,9.985320270061492920e-02,1.586987972259521484e-01,2.826457619667053223e-01,4.214682579040527344e-01,6.069710254669189453e-01,4.800868332386016846e-01,-9.428291767835617065e-02,-4.848125576972961426e-01,-2.217366695404052734e-01,-6.160625815391540527e-01,-4.563881456851959229e-01,1.985808163881301880e-01,-3.561338782310485840e-01,1.392580289393663406e-02,1.833993643522262573e-01,3.744726255536079407e-02,-9.216593205928802490e-02,-2.091563194990158081e-01,-3.482701480388641357e-01,-9.520276635885238647e-02,2.742772102355957031e-01,-1.542140841484069824e-01,-2.480117082595825195e-01,4.805713295936584473e-01,7.467208504676818848e-01,1.004013717174530029e-01,-2.972079813480377197e-01,-1.938438266515731812e-01,-3.800491690635681152e-01,-4.465199634432792664e-02,1.189841404557228088e-01,-9.280412197113037109e-01,-3.672016263008117676e-01,3.582811951637268066e-01,5.405097603797912598e-01,9.485372900962829590e-02,-5.977855324745178223e-01,7.582262754440307617e-01,-1.412140578031539917e-01,1.368198275566101074e+00,6.273756623268127441e-01,-3.026675283908843994e-01,
-3.652077317237854004e-01,-3.882087022066116333e-02,-3.798694610595703125e-01,-2.929441630840301514e-01,-5.355693772435188293e-02,2.138888835906982422e-01,8.912364020943641663e-03,2.135700583457946777e-01,1.923703774809837341e-02,2.901871502399444580e-01,-1.549070626497268677e-01,-1.523390561342239380e-01,-3.920345008373260498e-02,1.063890531659126282e-01,-1.095839068293571472e-01,-1.079377084970474243e-01,-2.063633501529693604e-02,2.134697586297988892e-01,-1.690084636211395264e-01,9.388204663991928101e-02,2.424120157957077026e-02,1.815733760595321655e-01,7.409534603357315063e-02,-6.755463033914566040e-02,6.555055081844329834e-02,2.404712885618209839e-01,-6.610144674777984619e-02,2.001250684261322021e-01,7.226023077964782715e-02,1.709626615047454834e-01,3.142309486865997314e-01,-1.200714483857154846e-01,2.790039405226707458e-02,5.737749114632606506e-02,-2.678415775299072266e-01,1.196920722723007202e-01,-1.279982272535562515e-02,2.612759768962860107e-01,-9.616669267416000366e-02,9.791592136025428772e-03,7.122610509395599365e-02,9.421015530824661255e-02,-4.065003618597984314e-02,-3.965992107987403870e-02,-5.094596743583679199e-02,7.188247144222259521e-02,3.554641306400299072e-01,-2.017706036567687988e-01,-2.937348783016204834e-01,9.573591947555541992e-01,-4.868264496326446533e-01,-8.645276427268981934e-01,-1.142929434776306152e+00,-5.973522067070007324e-01,1.703376770019531250e-01,-4.189776778221130371e-01,1.066680345684289932e-02,-1.109436511993408203e+00,-9.262684583663940430e-01,-7.760603427886962891e-01,
5.437151789665222168e-01,3.439874351024627686e-01,5.179898738861083984e-01,-2.585845589637756348e-01,-2.517484724521636963e-01,-3.833785355091094971e-01,3.103908966295421124e-04,-5.615071654319763184e-01,-2.208012789487838745e-01,-4.038831889629364014e-01,-1.469606757164001465e-01,-2.996971607208251953e-01,2.909195721149444580e-01,3.173047602176666260e-01,7.050224542617797852e-01,5.306092277169227600e-02,1.321386694908142090e-01,7.048864662647247314e-02,9.211966395378112793e-02,4.559987187385559082e-01,3.015365898609161377e-01,2.359651178121566772e-01,-6.180486641824245453e-03,1.427967287600040436e-02,-2.815413177013397217e-01,-6.762557029724121094e-01,-2.998522818088531494e-01,-3.002822697162628174e-01,-8.315567858517169952e-03,-1.941936463117599487e-01,-3.473079502582550049e-01,1.180487722158432007e-01,2.008278071880340576e-01,-2.146431505680084229e-01,6.586271524429321289e-02,-2.861632704734802246e-01,6.394302099943161011e-02,1.168969199061393738e-01,7.608728855848312378e-02,-1.382645219564437866e-01,-5.237520337104797363e-01,2.344264537096023560e-01,1.912258714437484741e-01,7.812116742134094238e-01,2.438381314277648926e-01,-2.162983566522598267e-01,-7.597618103027343750e-01,-8.618667721748352051e-01,-2.701255381107330322e-01,-1.039373040199279785e+00,-2.323672324419021606e-01,5.052545070648193359e-01,9.514403939247131348e-01,3.243761360645294189e-01,-1.476053148508071899e-01,1.566246986389160156e+00,-1.263478249311447144e-01,1.833952426910400391e+00,9.937136173248291016e-01,6.600609421730041504e-02,
5.974820256233215332e-01,4.138866066932678223e-01,3.981035053730010986e-01,1.063210248947143555e+00,6.044355034828186035e-01,1.287042349576950073e-01,-3.980710506439208984e-01,-8.002709746360778809e-01,6.130114197731018066e-01,4.893095195293426514e-01,5.019813776016235352e-01,6.048606634140014648e-01,3.400147557258605957e-01,2.004564255475997925e-01,-1.708939373493194580e-01,-2.458006739616394043e-01,-7.797417044639587402e-01,-8.763462901115417480e-01,-6.712537407875061035e-01,-4.070247113704681396e-01,5.098448693752288818e-02,1.487691104412078857e-01,-3.894348442554473877e-01,3.225684538483619690e-02,-2.557896375656127930e-01,1.663185656070709229e-01,4.500527679920196533e-01,3.606324791908264160e-01,3.308217972517013550e-02,1.870126724243164062e-01,-2.137595042586326599e-02,-1.587784849107265472e-02,1.094062179327011108e-01,1.141906082630157471e-01,5.244975686073303223e-01,5.757225155830383301e-01,3.911472260951995850e-01,7.621391862630844116e-02,3.323153033852577209e-02,-8.817950636148452759e-02,2.202533185482025146e-01,-7.421505451202392578e-01,-2.968789041042327881e-01,6.946149468421936035e-02,-7.786998152732849121e-02,4.309720993041992188e-01,-2.355116754770278931e-01,1.959318220615386963e-01,6.736141443252563477e-01,-5.091232657432556152e-01,7.355248183012008667e-02,2.894037365913391113e-01,1.977057456970214844e-01,2.829748392105102539e-01,-2.156211286783218384e-01,-6.662471294403076172e-01,1.436287909746170044e-01,-5.859065428376197815e-02,6.457719802856445312e-01,9.954468607902526855e-01,
-1.707436889410018921e-01,-3.591138124465942383e-01,-1.326208114624023438e-01,-1.145229712128639221e-01,1.366852670907974243e-01,4.193628728389739990e-01,2.504573762416839600e-01,1.658174246549606323e-01,1.263857185840606689e-01,1.838847696781158447e-01,8.672985434532165527e-02,1.462652683258056641e-01,-9.716954082250595093e-02,-7.571402192115783691e-02,4.700879100710153580e-03,1.143825650215148926e-01,3.970723748207092285e-01,-8.069083839654922485e-02,9.745110571384429932e-02,9.537678211927413940e-02,1.195122748613357544e-01,9.721919894218444824e-02,-8.537501841783523560e-02,1.655790060758590698e-01,1.345444470643997192e-01,4.238003119826316833e-02,1.486659348011016846e-01,-2.221294492483139038e-02,1.754968166351318359e-01,-4.873319063335657120e-03,3.257502615451812744e-01,-3.658630251884460449e-01,-3.985618799924850464e-02,2.792712450027465820e-01,-2.620044052600860596e-01,5.340057611465454102e-01,3.233236670494079590e-01,-3.333082497119903564e-01,-4.262902438640594482e-01,-4.327099323272705078e-01,-7.899460941553115845e-02,-3.036840558052062988e-01,-3.880801796913146973e-01,-3.884651064872741699e-01,-5.330759882926940918e-01,-4.599411785602569580e-01,-5.446903407573699951e-02,-5.765908956527709961e-01,-7.453379034996032715e-01,6.380435824394226074e-01,-2.892872989177703857e-01,-8.139560222625732422e-01,-1.178723096847534180e+00,-3.183107376098632812e-01,6.301407516002655029e-02,-4.198549985885620117e-01,2.906299233436584473e-01,-1.309447169303894043e+00,-8.343695402145385742e-01,-4.793040752410888672e-01,
3.797261714935302734e-01,1.666782498359680176e-01,2.654582858085632324e-01,3.829113245010375977e-01,9.139125049114227295e-02,6.101202592253684998e-02,-9.026770293712615967e-02,-4.001133441925048828e-01,1.311981230974197388e-01,1.935474760830402374e-02,2.793656289577484131e-01,1.066145971417427063e-01,1.681930571794509888e-01,-5.116578564047813416e-02,1.143093854188919067e-01,4.011311568319797516e-03,-2.075173705816268921e-01,-5.171565338969230652e-02,1.179962530732154846e-01,-1.072357147932052612e-01,1.883648186922073364e-01,8.447668701410293579e-02,-3.451029583811759949e-02,9.945897758007049561e-02,-2.154002934694290161e-01,1.835031509399414062e-01,9.330851584672927856e-02,-7.507093250751495361e-02,-1.224925965070724487e-01,9.732321649789810181e-02,-2.479616850614547729e-01,1.182305067777633667e-01,-9.763102233409881592e-02,-4.720914736390113831e-02,2.737289667129516602e-01,-1.528119668364524841e-02,2.397514646872878075e-03,-1.999779045581817627e-01,3.668837249279022217e-02,1.063729599118232727e-01,1.570045351982116699e-01,3.623856976628303528e-02,2.663125693798065186e-01,3.508713543415069580e-01,2.349033802747726440e-01,2.109998911619186401e-01,-1.504965941421687603e-03,3.281026780605316162e-01,3.312327265739440918e-01,-8.842663764953613281e-01,5.364198684692382812e-01,8.038684725761413574e-01,1.166887760162353516e+00,5.021525025367736816e-01,-2.836453914642333984e-01,3.588523268699645996e-01,-1.958757340908050537e-01,1.454667210578918457e+00,9.327400326728820801e-01,6.862123012542724609e-01,
-1.374253332614898682e-01,-4.064181447029113770e-01,-3.732461333274841309e-01,3.764775991439819336e-01,8.688334226608276367e-01,3.727836608886718750e-01,-3.452514410018920898e-01,-7.031729817390441895e-01,4.438430666923522949e-01,3.300566971302032471e-01,3.179541528224945068e-01,2.249399125576019287e-01,6.556846201419830322e-02,-1.603990048170089722e-01,-5.081448554992675781e-01,-4.700720012187957764e-01,-1.723107844591140747e-01,1.683425605297088623e-01,-1.406257748603820801e-01,-1.126281917095184326e-01,-2.678735256195068359e-01,7.697811722755432129e-02,2.839908897876739502e-01,8.408343791961669922e-02,3.032357394695281982e-01,3.364485800266265869e-01,3.556456267833709717e-01,5.087603628635406494e-02,4.029453918337821960e-02,2.278090454638004303e-02,1.813030242919921875e-01,1.102408692240715027e-01,-2.679534852504730225e-01,-2.159094065427780151e-01,9.755231440067291260e-02,-1.957131326198577881e-01,1.121647730469703674e-01,-3.028563223779201508e-02,-3.065086603164672852e-01,1.309022456407546997e-01,4.042370915412902832e-01,-9.517663717269897461e-02,-2.106915228068828583e-02,-1.646985411643981934e-01,-1.370781511068344116e-01,4.151663184165954590e-02,5.108034610748291016e-01,8.490714430809020996e-01,6.849998831748962402e-01,-5.255936980247497559e-01,7.106634378433227539e-01,6.018844842910766602e-01,9.869948625564575195e-01,2.098272293806076050e-01,-1.279166698455810547e+00,-7.325769066810607910e-01,-1.832728534936904907e-01,3.148414194583892822e-01,4.898650646209716797e-01,8.391965031623840332e-01,
-3.691005408763885498e-01,-1.878704577684402466e-01,-5.042914152145385742e-01,-8.196504116058349609e-01,-1.057926416397094727e+00,-1.419983953237533569e-01,2.181995958089828491e-01,5.432555079460144043e-01,-7.752662301063537598e-01,-1.336928725242614746e+00,-1.196134686470031738e+00,-1.081466913223266602e+00,-2.605552673339843750e-01,-1.329926401376724243e-02,8.007414638996124268e-02,-4.056478738784790039e-01,-8.154519796371459961e-01,-4.399661123752593994e-01,-7.561863958835601807e-02,-9.438073635101318359e-02,1.560671720653772354e-02,8.968770503997802734e-02,2.713159620761871338e-01,-2.735830470919609070e-02,2.207549065351486206e-01,1.996158063411712646e-01,1.160793825984001160e-01,-9.145475924015045166e-02,4.965716302394866943e-01,2.472596615552902222e-01,1.108186841011047363e-01,8.357910066843032837e-02,3.902990520000457764e-01,2.130008190870285034e-01,2.718777060508728027e-01,2.898393869400024414e-01,-1.115685999393463135e-01,-1.343147307634353638e-01,-4.993215575814247131e-02,1.113487184047698975e-01,-3.580284416675567627e-01,2.821147441864013672e-01,1.599234342575073242e-01,3.503414988517761230e-01,-5.268093198537826538e-02,-5.563509464263916016e-01,-4.280793666839599609e-01,-5.994431376457214355e-01,-9.245890378952026367e-01,1.128021717071533203e+00,1.329698264598846436e-01,-5.964867398142814636e-02,2.207371294498443604e-01,8.838538527488708496e-01,1.113653302192687988e+00,8.081116080284118652e-01,6.343029737472534180e-01,5.127927064895629883e-01,-3.212908804416656494e-01,-4.425062835216522217e-01,
5.230041742324829102e-01,5.041131377220153809e-01,3.012024462223052979e-01,6.771330535411834717e-02,1.360516995191574097e-01,1.899039596319198608e-01,-1.483351737260818481e-01,-1.199603453278541565e-01,5.999378487467765808e-02,-5.162687972187995911e-02,-7.188358902931213379e-02,-1.182528734207153320e-01,-1.977593451738357544e-01,-1.410753726959228516e-01,5.017156526446342468e-02,-9.417677670717239380e-02,-2.013129740953445435e-01,-6.622339785099029541e-02,-1.025529503822326660e-01,-2.050564587116241455e-01,5.044557526707649231e-02,7.901743054389953613e-02,1.945416778326034546e-01,3.815998733043670654e-01,2.634649872779846191e-01,4.917370621114969254e-03,2.630180418491363525e-01,2.443792521953582764e-01,3.835009038448333740e-02,1.006030440330505371e-01,-2.525083124637603760e-01,6.685585528612136841e-02,-6.649752706289291382e-02,7.548358291387557983e-02,-8.899709582328796387e-02,1.035339310765266418e-01,-1.335819512605667114e-01,3.022218123078346252e-02,2.146614193916320801e-01,3.085054457187652588e-01,1.222712025046348572e-01,-2.299260497093200684e-01,3.093695342540740967e-01,7.256159931421279907e-02,3.010715171694755554e-02,2.989086508750915527e-01,-2.292013019323348999e-01,3.103640377521514893e-01,6.099933981895446777e-01,-1.207355260848999023e+00,-1.836084425449371338e-01,5.127449035644531250e-01,1.114927053451538086e+00,2.709282338619232178e-01,-6.167774796485900879e-01,3.359260559082031250e-01,3.310355544090270996e-01,1.027717471122741699e+00,8.412597775459289551e-01,6.341426968574523926e-01,
4.883500933647155762e-01,1.951448768377304077e-01,2.304778993129730225e-01,4.055607318878173828e-01,-7.629743963479995728e-02,-8.504185825586318970e-02,2.125209011137485504e-02,-3.547897338867187500e-01,2.302190810441970825e-01,-1.302250027656555176e-01,2.996539473533630371e-01,3.760094940662384033e-02,3.220869228243827820e-02,1.491283625364303589e-01,1.114067211747169495e-01,2.750504948198795319e-02,-1.252421289682388306e-01,4.828649014234542847e-02,2.151896059513092041e-01,-1.756475269794464111e-01,1.543776094913482666e-01,1.972962170839309692e-02,-3.309959545731544495e-02,1.122116968035697937e-01,-1.545462012290954590e-01,6.565544754266738892e-02,2.073857635259628296e-01,6.572087109088897705e-02,1.298013925552368164e-01,-1.288154255598783493e-02,-3.934546411037445068e-01,2.125718444585800171e-01,-1.532566081732511520e-02,4.019413515925407410e-02,3.677702695131301880e-02,-3.357568979263305664e-01,1.002763509750366211e-01,5.278082191944122314e-02,-8.589922636747360229e-02,1.226040795445442200e-01,-9.584403783082962036e-02,-1.912784576416015625e-02,1.147278100252151489e-01,-4.499199241399765015e-02,2.687371075153350830e-01,-1.143848672509193420e-01,-2.133519053459167480e-01,2.761093974113464355e-01,5.638609528541564941e-01,-8.618405461311340332e-01,3.497412204742431641e-01,8.682211041450500488e-01,1.032349586486816406e+00,6.100584268569946289e-01,-4.537631571292877197e-01,5.172523856163024902e-01,1.459743976593017578e-01,1.207652211189270020e+00,8.559533357620239258e-01,8.787090778350830078e-01,
-4.148522913455963135e-01,-1.321447640657424927e-01,-5.548004806041717529e-02,-2.612400949001312256e-01,-1.604485362768173218e-01,2.361138351261615753e-02,-4.913809895515441895e-02,2.805855572223663330e-01,4.005130846053361893e-03,2.422247454524040222e-02,-1.678744852542877197e-01,-1.496362686157226562e-01,6.350341439247131348e-02,6.233320757746696472e-02,1.808648407459259033e-01,5.062570795416831970e-02,7.712650299072265625e-02,1.577088236808776855e-01,-8.532750606536865234e-02,-1.688847839832305908e-01,6.464276928454637527e-03,3.758830949664115906e-02,1.148325428366661072e-01,-9.153882041573524475e-03,2.384077757596969604e-01,2.193097174167633057e-01,-1.113286148756742477e-02,1.873186528682708740e-01,3.380898386240005493e-02,-1.666577458381652832e-01,1.445685476064682007e-01,-2.478703558444976807e-01,1.315517723560333252e-01,-9.192615747451782227e-03,8.924294263124465942e-02,2.471274584531784058e-01,3.081291317939758301e-01,4.563564062118530273e-02,-9.927622228860855103e-02,3.191074430942535400e-01,2.406104207038879395e-01,-1.766296848654747009e-02,-9.498122334480285645e-02,2.707992866635322571e-02,-2.400687634944915771e-01,-1.372939944267272949e-01,1.192435435950756073e-02,-1.737869977951049805e-01,-3.707528710365295410e-01,5.844203829765319824e-01,-3.137025833129882812e-01,-6.564002037048339844e-01,-1.088655829429626465e+00,-3.316619694232940674e-01,2.653152048587799072e-01,-4.396689832210540771e-01,3.055816590785980225e-01,-9.243243932723999023e-01,-7.642534971237182617e-01,-6.312144398689270020e-01,
3.818215429782867432e-02,1.354540586471557617e-01,8.143187314271926880e-02,-2.307816296815872192e-01,-1.685647107660770416e-02,1.418401896953582764e-01,2.588086016476154327e-02,2.321751043200492859e-02,3.864755108952522278e-02,1.693893522024154663e-01,-1.125197708606719971e-01,1.517594791948795319e-02,-1.963586509227752686e-01,1.498495042324066162e-01,9.246099740266799927e-02,-2.245738953351974487e-01,8.911510556936264038e-02,1.937421560287475586e-01,-1.050294470041990280e-02,-1.156618595123291016e-01,1.608063653111457825e-02,8.857825398445129395e-02,1.487784534692764282e-01,-2.277401387691497803e-01,-1.170186623930931091e-01,-2.154477834701538086e-01,-8.097753673791885376e-02,-1.320780515670776367e-01,-1.255477666854858398e-01,-8.805617690086364746e-03,-1.585223823785781860e-01,-1.582168787717819214e-01,-1.157579869031906128e-01,8.390296250581741333e-02,-1.283654421567916870e-01,2.593185193836688995e-02,-2.853672951459884644e-02,1.489878445863723755e-01,8.276161551475524902e-02,2.080509206280112267e-03,-1.020557507872581482e-01,1.005273163318634033e-01,1.609341949224472046e-01,-1.765726337907835841e-04,-1.835604906082153320e-01,-2.222735881805419922e-01,1.414245198247954249e-04,-2.335036695003509521e-01,5.403447151184082031e-02,-1.751173138618469238e-01,-8.788474649190902710e-02,-8.169288933277130127e-02,-1.732806563377380371e-01,-6.784702837467193604e-02,-1.618415862321853638e-01,1.070415079593658447e-01,2.698383852839469910e-02,-2.089347839355468750e-01,-1.175915449857711792e-01,2.081452906131744385e-01,
-6.669621467590332031e-01,1.933038085699081421e-01,-3.832713067531585693e-01,-9.342129826545715332e-01,-1.465836882591247559e+00,-7.647033333778381348e-01,1.972848623991012573e-01,2.867856062948703766e-02,-7.530447840690612793e-01,-6.294061541557312012e-01,-7.009658813476562500e-01,-5.048295855522155762e-01,-2.017406374216079712e-01,2.920882999897003174e-01,1.815649271011352539e-01,-5.492954328656196594e-02,5.884916335344314575e-02,4.370861649513244629e-01,-1.689494103193283081e-01,-2.612206637859344482e-01,-2.538972198963165283e-01,-1.135415434837341309e-01,-7.255765050649642944e-02,2.100085914134979248e-01,1.063079535961151123e-01,1.407437771558761597e-01,-1.421723812818527222e-01,1.046499703079462051e-02,3.183061778545379639e-01,2.108934819698333740e-01,1.896485835313796997e-01,-2.987667545676231384e-02,4.183186590671539307e-02,4.495768621563911438e-02,9.355895966291427612e-02,3.284811079502105713e-01,5.120069980621337891e-01,1.116567403078079224e-01,-4.171057343482971191e-01,-1.310492753982543945e-01,-7.455220073461532593e-02,1.587613373994827271e-01,1.045567095279693604e-01,-1.175760403275489807e-01,-1.108281612396240234e-01,-1.553062945604324341e-01,1.973216980695724487e-02,-3.910259902477264404e-01,-4.441336989402770996e-01,1.360256791114807129e+00,3.060622215270996094e-01,-6.719276905059814453e-01,-6.183252930641174316e-01,4.290255308151245117e-01,5.633667707443237305e-01,-4.260003194212913513e-02,-6.568894982337951660e-01,-9.745317101478576660e-01,-1.070543408393859863e+00,-6.708023548126220703e-01,
5.038267970085144043e-01,5.252518057823181152e-01,1.829506605863571167e-01,3.054286837577819824e-01,4.157854244112968445e-02,-7.199096679687500000e-02,-2.346679568290710449e-01,-3.163742125034332275e-01,6.016237661242485046e-02,1.103360503911972046e-01,3.881416618824005127e-01,2.111627459526062012e-01,2.064367830753326416e-01,-1.796520948410034180e-01,-2.409514854662120342e-04,1.906235367059707642e-01,-2.963435649871826172e-01,1.876547746360301971e-02,-1.673990339040756226e-01,-7.057968527078628540e-02,8.161503821611404419e-02,1.753240525722503662e-01,-1.140941977500915527e-01,1.928030103445053101e-01,1.560414284467697144e-01,1.597058176994323730e-01,-1.308913808315992355e-02,-1.766894757747650146e-01,-1.134146675467491150e-01,1.110226940363645554e-02,-1.021180301904678345e-01,-1.189961005002260208e-02,2.517442703247070312e-01,3.830244764685630798e-02,2.319645881652832031e-01,7.924106717109680176e-02,-6.504003703594207764e-02,6.065649166703224182e-02,-1.215720102190971375e-01,-8.201975375413894653e-02,-2.083674669265747070e-01,-8.591426163911819458e-02,2.883210778236389160e-01,2.224115580320358276e-01,1.969430297613143921e-01,1.503574401140213013e-01,2.556520141661167145e-02,3.139918446540832520e-01,4.098592102527618408e-01,-6.849573850631713867e-01,3.672138452529907227e-01,9.179217815399169922e-01,1.048835515975952148e+00,5.782167911529541016e-01,-8.522897213697433472e-02,5.150182843208312988e-01,1.535118818283081055e-01,9.938948154449462891e-01,9.745150208473205566e-01,9.103318452835083008e-01,
1.015237793326377869e-01,-1.873688250780105591e-01,-4.407568871974945068e-01,4.881533980369567871e-01,8.023784160614013672e-01,7.710553705692291260e-02,-1.689871549606323242e-01,1.333340723067522049e-02,4.485767185688018799e-01,1.834421455860137939e-01,3.014443516731262207e-01,-2.652893029153347015e-02,-2.433504164218902588e-01,-3.401138186454772949e-01,-2.961109280586242676e-01,-1.056409925222396851e-01,-3.343609869480133057e-01,8.988843113183975220e-02,-1.069335266947746277e-01,-2.281302213668823242e-01,9.739787876605987549e-02,-2.182172983884811401e-01,1.812334060668945312e-01,1.682483851909637451e-01,-2.571642100811004639e-01,2.650374174118041992e-01,3.937874734401702881e-01,3.309872746467590332e-01,2.219624966382980347e-01,3.078669011592864990e-01,-2.353723496198654175e-01,1.066355407238006592e-01,2.097050249576568604e-01,-1.093935593962669373e-02,2.068185061216354370e-01,-6.654492765665054321e-02,-8.707161061465740204e-03,-7.905416935682296753e-02,-2.745922505855560303e-01,-2.005146145820617676e-01,4.672131240367889404e-01,-7.504718750715255737e-02,-1.535603702068328857e-01,-1.885756105184555054e-01,2.225909084081649780e-01,2.980826497077941895e-01,4.819569736719131470e-02,8.449855446815490723e-01,9.849130511283874512e-01,-6.844729185104370117e-01,8.438876271247863770e-01,1.198500871658325195e+00,8.660613298416137695e-01,3.992826938629150391e-01,-7.307293415069580078e-01,-4.720202684402465820e-01,-5.266312509775161743e-02,6.532504558563232422e-01,9.585614204406738281e-01,8.136693239212036133e-01,
-3.475634381175041199e-02,8.097357153892517090e-01,7.606677711009979248e-02,-1.867540925741195679e-01,-1.170481294393539429e-01,-1.669329553842544556e-01,-3.564190566539764404e-01,3.177781105041503906e-01,7.426173239946365356e-02,5.078846216201782227e-02,2.993814945220947266e-01,-3.899179399013519287e-02,-2.316201329231262207e-01,-1.218240037560462952e-01,-2.121140807867050171e-02,-2.233486995100975037e-02,-3.086309432983398438e-01,-1.317847222089767456e-01,1.885832995176315308e-01,-1.132673099637031555e-01,1.174923181533813477e-01,-5.754124373197555542e-02,3.219445943832397461e-01,4.063226580619812012e-01,2.716443315148353577e-02,-4.156207665801048279e-02,2.417986467480659485e-02,7.013082504272460938e-02,2.342598885297775269e-01,9.812199324369430542e-02,-1.272082179784774780e-01,3.207687437534332275e-01,3.046295046806335449e-02,-1.533036381006240845e-01,-4.572959244251251221e-01,-6.678789258003234863e-01,-1.658345311880111694e-01,-3.494237363338470459e-01,-2.374532073736190796e-01,3.789359927177429199e-01,7.216084003448486328e-01,4.698491096496582031e-01,-4.250628501176834106e-02,-5.950153246521949768e-02,-2.995207011699676514e-01,-1.974512338638305664e-01,-7.732296735048294067e-02,4.639865159988403320e-01,4.710256457328796387e-01,-8.410605788230895996e-01,6.710823774337768555e-01,1.252554059028625488e+00,1.140180587768554688e+00,1.735787391662597656e-01,7.812511920928955078e-02,2.478663176298141479e-01,-2.576644532382488251e-02,7.714489698410034180e-01,3.705887794494628906e-01,-5.215958356857299805e-01,
5.766125321388244629e-01,-2.286965958774089813e-03,-3.053258359432220459e-01,5.725793167948722839e-02,3.214508295059204102e-01,-1.797632575035095215e-01,-3.938709795475006104e-01,1.645084172487258911e-01,5.579648613929748535e-01,2.106832712888717651e-01,1.062259376049041748e-01,1.040656492114067078e-01,-3.251999318599700928e-01,-7.175654917955398560e-02,-3.197524845600128174e-01,1.727402359247207642e-01,-1.838572770357131958e-01,-2.833631634712219238e-01,6.775017827749252319e-03,-3.206307291984558105e-01,-7.960262149572372437e-02,8.012234419584274292e-02,2.035669982433319092e-01,2.340402454137802124e-01,1.353159919381141663e-02,4.457153379917144775e-02,4.151175618171691895e-01,9.131297469139099121e-02,3.785124421119689941e-01,1.500289589166641235e-01,-3.238297700881958008e-01,8.002272993326187134e-02,-1.022239923477172852e-01,-2.387320399284362793e-01,1.262934040278196335e-02,1.597179286181926727e-02,3.040635772049427032e-02,-1.315077990293502808e-01,-2.083902619779109955e-02,-4.071907326579093933e-02,3.754520416259765625e-01,-6.406105309724807739e-02,-2.820813655853271484e-02,1.772646605968475342e-01,8.411131054162979126e-02,2.003057152032852173e-01,1.740814745426177979e-01,8.561521768569946289e-01,7.658378481864929199e-01,-7.460425496101379395e-01,6.881687641143798828e-01,6.819557547569274902e-01,9.446706771850585938e-01,4.398189485073089600e-01,-5.732728838920593262e-01,-1.135270521044731140e-01,3.814768046140670776e-02,8.867903947830200195e-01,6.461861729621887207e-01,5.580310821533203125e-01,
2.179593443870544434e-01,2.112706005573272705e-01,6.921407580375671387e-02,-8.620712161064147949e-02,-1.545586735010147095e-01,7.503405213356018066e-03,1.855174899101257324e-01,3.359791636466979980e-02,-7.460802793502807617e-03,6.632575392723083496e-02,2.080050408840179443e-01,-1.935577988624572754e-01,-7.626944780349731445e-02,1.195098757743835449e-01,4.746496677398681641e-02,-1.774893999099731445e-01,-2.220824509859085083e-01,-1.404570043087005615e-01,-1.323887705802917480e-01,-2.091248482465744019e-01,-1.579457968473434448e-01,1.721384823322296143e-01,-7.516860961914062500e-02,1.512981057167053223e-01,9.711417555809020996e-02,-1.714060604572296143e-01,-1.666442453861236572e-01,-2.205592393875122070e-02,-8.205054700374603271e-02,-7.257689535617828369e-02,4.154145717620849609e-04,1.661489903926849365e-02,-1.140933111310005188e-01,1.114559173583984375e-01,-1.119887083768844604e-01,-1.018653437495231628e-01,1.839393079280853271e-01,2.149881422519683838e-02,-1.174433305859565735e-01,1.312305629253387451e-01,-1.705525815486907959e-02,-4.764702916145324707e-02,-1.765175163745880127e-01,5.120080709457397461e-02,3.535920381546020508e-02,1.345448493957519531e-01,1.166985630989074707e-01,-1.368212848901748657e-01,-3.962889313697814941e-02,1.372536420822143555e-01,-1.435489952564239502e-01,-1.496432423591613770e-01,-4.060477018356323242e-02,-1.981794834136962891e-02,1.485661268234252930e-01,-1.852543503046035767e-01,-1.139384508132934570e-02,-3.506273031234741211e-02,1.587181389331817627e-01,1.021549105644226074e-02,
-4.618731141090393066e-01,-4.711290895938873291e-01,-1.778416037559509277e-01,-3.162761926651000977e-01,4.229797050356864929e-02,3.045434504747390747e-02,3.942878246307373047e-01,3.651224374771118164e-01,-2.163113951683044434e-01,2.075281590223312378e-01,-9.980432689189910889e-02,8.454539813101291656e-03,-1.490949094295501709e-01,2.132290154695510864e-01,6.655144388787448406e-04,-1.304512619972229004e-01,2.370143830776214600e-01,1.848289668560028076e-01,-1.442009806632995605e-01,1.231157453730702400e-03,-2.142959088087081909e-01,1.089896075427532196e-02,3.856287151575088501e-02,9.343867748975753784e-02,-7.257381826639175415e-02,2.012357562780380249e-01,1.483549028635025024e-01,2.197172939777374268e-01,-1.752856373786926270e-01,-2.383507788181304932e-01,1.718841493129730225e-01,3.831391036510467529e-02,1.933408528566360474e-01,-1.254873573780059814e-01,-2.929382026195526123e-01,2.359731793403625488e-01,3.396397829055786133e-01,-1.137101724743843079e-01,7.934255897998809814e-02,2.348894327878952026e-01,1.954284757375717163e-01,-1.669179461896419525e-02,1.110700890421867371e-01,-1.260046511888504028e-01,-1.559210568666458130e-01,6.257303804159164429e-02,2.849220931529998779e-01,-3.373837769031524658e-01,-3.836511969566345215e-01,9.556462764739990234e-01,-4.396016001701354980e-01,-1.098035931587219238e+00,-1.337242603302001953e+00,-5.238862633705139160e-01,5.802717208862304688e-01,-2.739776968955993652e-01,-1.076409313827753067e-02,-1.331039905548095703e+00,-1.051053047180175781e+00,-9.039756655693054199e-01,
5.016909837722778320e-01,6.474955081939697266e-01,3.137830495834350586e-01,-3.265287280082702637e-01,4.643480293452739716e-03,2.967634610831737518e-02,4.190577939152717590e-02,1.090309396386146545e-01,-2.205611616373062134e-01,-3.709428906440734863e-01,2.182835489511489868e-01,-1.088452413678169250e-01,-8.839485049247741699e-02,1.105251349508762360e-02,1.685996055603027344e-01,2.927573211491107941e-02,2.747278511524200439e-01,2.953562438488006592e-01,3.202321231365203857e-01,-1.979502290487289429e-02,2.093577831983566284e-01,2.569743692874908447e-01,3.501395583152770996e-01,3.505445122718811035e-01,-1.887252479791641235e-01,-1.506299376487731934e-01,-2.927016913890838623e-01,-2.538551688194274902e-01,1.377396732568740845e-01,6.168096140027046204e-02,7.674806565046310425e-02,5.637133121490478516e-01,2.379924207925796509e-01,-1.208796948194503784e-01,-3.569469153881072998e-01,-1.145349025726318359e+00,-9.869321584701538086e-01,-6.109882593154907227e-01,-2.607866525650024414e-01,3.845321536064147949e-01,3.418187797069549561e-01,5.480221509933471680e-01,2.249511629343032837e-01,-1.343420147895812988e-01,-1.467368304729461670e-01,3.228582069277763367e-02,-1.995982229709625244e-02,6.922457814216613770e-01,7.139155268669128418e-01,-7.633180618286132812e-01,9.935898184776306152e-01,1.403186440467834473e+00,1.463443517684936523e+00,7.723877429962158203e-01,-1.516399532556533813e-01,8.883626461029052734e-01,-9.076870232820510864e-02,1.715977072715759277e+00,8.843243718147277832e-01,1.888912469148635864e-01,
-6.585283875465393066e-01,-1.306393444538116455e-01,-3.401919603347778320e-01,-3.134244978427886963e-01,1.277019735425710678e-02,8.913327008485794067e-02,2.245807796716690063e-01,1.784683316946029663e-01,3.062333166599273682e-02,-4.375775903463363647e-02,-2.653154730796813965e-02,-9.459716826677322388e-02,1.511135399341583252e-01,-6.074914336204528809e-02,1.500594466924667358e-01,2.285378128290176392e-01,3.476602723821997643e-04,1.690867394208908081e-01,-1.575337052345275879e-01,1.261085569858551025e-01,1.795505881309509277e-01,-3.086913144215941429e-03,-1.504276841878890991e-01,-2.341938465833663940e-01,1.072128713130950928e-01,-6.279502809047698975e-02,6.473039090633392334e-02,2.006878703832626343e-02,-3.333472460508346558e-02,1.704152673482894897e-01,3.575550913810729980e-01,-2.200130224227905273e-01,-1.755257993936538696e-01,-2.244976535439491272e-02,-4.801156744360923767e-02,3.934975862503051758e-01,2.892065048217773438e-01,1.682125031948089600e-01,1.934671103954315186e-01,-2.804405428469181061e-02,1.670116484165191650e-01,-4.750390723347663879e-02,2.328354679048061371e-02,1.155253686010837555e-02,1.280747056007385254e-01,-2.074431031942367554e-01,1.016048714518547058e-02,-4.400247037410736084e-01,-4.238391816616058350e-01,6.886184811592102051e-01,-4.732455015182495117e-01,-9.132029414176940918e-01,-1.066970109939575195e+00,-4.349444806575775146e-01,1.903826147317886353e-01,-4.525536596775054932e-01,2.725669145584106445e-01,-1.129532575607299805e+00,-8.481677174568176270e-01,-6.099246144294738770e-01,
1.591879278421401978e-01,-3.489625081419944763e-02,-3.565610349178314209e-01,-7.598236203193664551e-01,-3.285167515277862549e-01,-2.735517621040344238e-01,-3.190767168998718262e-01,-4.837483167648315430e-01,-3.263109922409057617e-01,-2.633474469184875488e-01,-5.020765662193298340e-01,-6.354371905326843262e-01,1.062876135110855103e-01,2.950817942619323730e-01,1.760708093643188477e-01,4.063569605350494385e-01,3.998526036739349365e-01,-1.616654992103576660e-01,-2.142693996429443359e-01,-6.100472807884216309e-02,-7.052584737539291382e-02,-1.748822182416915894e-01,-4.599795117974281311e-02,-5.226338747888803482e-03,1.194300353527069092e-01,2.729567587375640869e-01,5.029178261756896973e-01,8.953912556171417236e-02,1.953267008066177368e-01,-1.376463323831558228e-01,-2.431145757436752319e-01,-8.210614323616027832e-02,1.994410753250122070e-01,3.936780989170074463e-01,9.230037778615951538e-02,5.906216502189636230e-01,5.949228405952453613e-01,-2.679747939109802246e-01,-6.335688233375549316e-01,-5.611591935157775879e-01,-4.299278855323791504e-01,7.779967784881591797e-02,-4.133901894092559814e-01,-5.609165430068969727e-01,-3.142156302928924561e-01,-1.460332125425338745e-01,2.504096031188964844e-01,-3.267692327499389648e-01,-1.011038541793823242e+00,5.789238214492797852e-01,-1.772320866584777832e-01,-1.105746626853942871e+00,-1.000227451324462891e+00,-1.930499076843261719e-01,5.606415271759033203e-01,-2.601991295814514160e-01,-4.452574998140335083e-03,-1.871091604232788086e+00,-9.800022840499877930e-01,-1.782028377056121826e-01,
-2.436293512582778931e-01,-6.963684409856796265e-02,-5.206944346427917480e-01,-1.461858749389648438e-01,2.931031584739685059e-01,1.326738297939300537e-01,-5.845988988876342773e-01,-2.216455191373825073e-01,2.684036791324615479e-01,2.937631011009216309e-01,5.902238488197326660e-01,4.389652013778686523e-01,1.727452687919139862e-02,-6.022536158561706543e-01,-7.052453160285949707e-01,-2.170183509588241577e-01,1.365785207599401474e-02,-5.433355271816253662e-02,1.642275750637054443e-01,-2.454530447721481323e-01,-2.227057963609695435e-01,1.066391691565513611e-01,2.308147996664047241e-01,3.021593689918518066e-01,2.040035277605056763e-01,1.660329997539520264e-01,5.368631482124328613e-01,2.994399070739746094e-01,1.433975547552108765e-01,1.360784173011779785e-01,-7.634015381336212158e-02,3.081363439559936523e-01,-1.735596656799316406e-01,-2.664170861244201660e-01,-2.559545636177062988e-01,-9.678012877702713013e-02,-1.977388113737106323e-01,-2.716743052005767822e-01,-2.830080389976501465e-01,6.501596421003341675e-02,2.293542474508285522e-01,-8.492941409349441528e-02,-1.529372930526733398e-01,1.877446845173835754e-02,2.183705568313598633e-01,-4.424357786774635315e-02,4.133511185646057129e-01,3.497041165828704834e-01,7.234175801277160645e-01,-5.886083841323852539e-01,2.204132080078125000e-01,1.127907752990722656e+00,5.174093842506408691e-01,-2.793105542659759521e-01,-7.891367673873901367e-01,-6.916223764419555664e-01,-5.924068093299865723e-01,1.692226380109786987e-01,-3.049908578395843506e-01,-6.301012039184570312e-01,
-7.808589935302734375e-01,-4.443358778953552246e-01,-3.896006643772125244e-01,-3.782328963279724121e-01,-9.110473841428756714e-02,-8.558652549982070923e-02,2.952276766300201416e-01,4.081252813339233398e-01,-2.314984947443008423e-01,2.769664227962493896e-01,-5.902593210339546204e-02,-2.078066766262054443e-01,7.785249501466751099e-02,-3.105937689542770386e-02,1.239521130919456482e-01,2.203946113586425781e-01,1.636623889207839966e-01,-8.017264306545257568e-02,-9.258481860160827637e-02,-1.824302375316619873e-01,3.763130307197570801e-02,-1.061548739671707153e-01,3.973832353949546814e-02,2.146863192319869995e-02,1.484659016132354736e-01,1.271155774593353271e-01,1.754540763795375824e-02,2.208460420370101929e-01,1.085941717028617859e-01,-1.311638578772544861e-02,3.821383714675903320e-01,-2.695693969726562500e-01,4.764050990343093872e-02,2.506875395774841309e-01,-3.100712001323699951e-01,3.547414764761924744e-02,1.796317696571350098e-01,2.812582999467849731e-02,1.577246785163879395e-01,7.229005545377731323e-02,9.195131808519363403e-02,1.135872155427932739e-01,-1.647661440074443817e-02,-2.018599063158035278e-01,-9.836823493242263794e-02,-1.644540876150131226e-01,2.569757699966430664e-01,-2.901398837566375732e-01,-7.550772428512573242e-01,7.502364516258239746e-01,-3.036164641380310059e-01,-9.126074314117431641e-01,-1.199782252311706543e+00,-3.322242796421051025e-01,5.431597232818603516e-01,-2.758116126060485840e-01,-5.414743348956108093e-02,-1.423992514610290527e+00,-1.118575334548950195e+00,-7.799289822578430176e-01,
-4.138336181640625000e-01,-8.704658746719360352e-01,-7.348642498254776001e-02,9.271198511123657227e-01,1.804372668266296387e-01,-3.543063998222351074e-01,-7.936854362487792969e-01,-1.467009544372558594e+00,-8.534801006317138672e-01,5.615532025694847107e-02,1.856671720743179321e-01,3.501196205615997314e-01,5.002099871635437012e-01,-5.864986032247543335e-02,-3.871058523654937744e-01,-3.914276957511901855e-01,4.695545881986618042e-02,-8.890603482723236084e-02,-2.052686661481857300e-01,1.827042698860168457e-01,-5.697976797819137573e-02,2.457738220691680908e-01,1.226962134242057800e-01,2.013869024813175201e-02,-4.360187053680419922e-02,1.809105575084686279e-01,5.611952021718025208e-02,1.667514592409133911e-01,4.676932990550994873e-01,3.725764527916908264e-02,-4.501315057277679443e-01,-6.499486565589904785e-01,-6.489385962486267090e-01,-2.554617524147033691e-01,2.788452506065368652e-01,7.106674909591674805e-01,7.156317234039306641e-01,4.288914203643798828e-01,3.181287646293640137e-01,-6.750911474227905273e-02,-8.980834484100341797e-02,-3.095291256904602051e-01,4.038393795490264893e-01,3.610155284404754639e-01,-1.385300159454345703e-01,-8.856036700308322906e-03,-4.931566119194030762e-01,-1.356008768081665039e+00,-7.629218101501464844e-01,-7.012138962745666504e-01,-6.012466549873352051e-01,9.350044280290603638e-02,-7.713797092437744141e-01,-9.338105320930480957e-01,-5.653694272041320801e-01,-1.013556838035583496e+00,-9.706315994262695312e-01,-4.553387761116027832e-01,-2.842816412448883057e-01,-5.538313388824462891e-01,
-5.242477655410766602e-01,-2.588860690593719482e-01,-2.729436755180358887e-01,-3.560332953929901123e-01,-1.076121032238006592e-01,3.476745486259460449e-01,3.220879435539245605e-01,2.144161909818649292e-01,-2.547980248928070068e-01,-1.938118040561676025e-02,-2.970590591430664062e-01,-9.063174948096275330e-03,8.544997125864028931e-02,-9.514007717370986938e-02,5.282681062817573547e-02,1.285032629966735840e-01,-1.265140250325202942e-02,2.585289478302001953e-01,1.466313600540161133e-01,1.277566403150558472e-01,-7.798661943525075912e-03,-1.140661016106605530e-01,-1.434064954519271851e-01,-2.650663256645202637e-01,1.318160593509674072e-01,1.593266576528549194e-01,6.112128496170043945e-03,-1.166046708822250366e-01,7.337915897369384766e-02,-1.912321448326110840e-01,4.915819168090820312e-01,3.834779188036918640e-02,2.115873992443084717e-01,1.575631499290466309e-01,-1.816513985395431519e-01,1.727478057146072388e-01,2.545061707496643066e-01,2.376567423343658447e-01,-7.809357345104217529e-02,1.007843688130378723e-01,1.654565930366516113e-01,9.925751388072967529e-02,-2.370015233755111694e-01,-2.476402223110198975e-01,1.849817112088203430e-02,9.553360193967819214e-02,3.216802701354026794e-02,-1.226596608757972717e-01,-2.897172868251800537e-01,7.071958780288696289e-01,-5.499740242958068848e-01,-8.330232501029968262e-01,-7.239282131195068359e-01,-4.520094096660614014e-01,1.218227297067642212e-01,-4.373107552528381348e-01,1.179827228188514709e-01,-9.614737033843994141e-01,-8.183661699295043945e-01,-4.881167709827423096e-01,
5.376564264297485352e-01,3.753248453140258789e-01,1.378136873245239258e-01,2.805217802524566650e-01,-4.435042291879653931e-02,-2.463409751653671265e-01,-1.769807487726211548e-01,-5.903717875480651855e-02,5.456288158893585205e-02,1.283827587030827999e-03,2.275764197111129761e-01,1.857140660285949707e-01,-1.455090343952178955e-01,4.932831600308418274e-02,-1.721751317381858826e-02,-2.517429739236831665e-02,1.095264870673418045e-02,-2.418788373470306396e-01,-8.599387854337692261e-02,2.032795846462249756e-01,1.874223500490188599e-01,4.208038747310638428e-02,2.190368771553039551e-01,-2.631631866097450256e-02,-6.002175807952880859e-02,-1.668151319026947021e-01,1.674644649028778076e-01,6.093006208539009094e-02,-4.975074902176856995e-02,2.588599026203155518e-01,-3.222511708736419678e-01,3.596039414405822754e-01,2.247419208288192749e-01,1.048344075679779053e-01,7.360994815826416016e-02,-1.106466948986053467e-01,-2.508030831813812256e-01,3.294016420841217041e-02,7.204277068376541138e-02,-1.717229634523391724e-01,1.189483180642127991e-01,2.133130840957164764e-02,1.839979141950607300e-01,1.629806160926818848e-01,4.044169560074806213e-02,-7.594825327396392822e-02,-1.772078722715377808e-01,2.863977849483489990e-01,4.253420829772949219e-01,-8.892208933830261230e-01,2.899481952190399170e-01,6.985698342323303223e-01,1.198755979537963867e+00,4.486280977725982666e-01,-2.651385962963104248e-01,5.667728185653686523e-01,8.972717821598052979e-02,1.176295757293701172e+00,8.308398723602294922e-01,5.433470010757446289e-01,
-1.606172621250152588e-01,5.916521325707435608e-02,1.927828490734100342e-01,1.218404099345207214e-01,-2.314062416553497314e-01,-9.664608538150787354e-02,3.952896222472190857e-02,-5.851276591420173645e-02,1.991961747407913208e-01,1.326961666345596313e-01,8.507395535707473755e-02,-1.660735756158828735e-01,1.603069528937339783e-02,1.973614543676376343e-01,-1.078116521239280701e-01,3.683763789013028145e-03,-2.029114216566085815e-01,-8.538990281522274017e-03,-8.600502461194992065e-02,1.754519045352935791e-01,-1.657216250896453857e-01,2.638821862637996674e-02,8.015839010477066040e-02,-1.794097870588302612e-01,-4.349240660667419434e-02,3.055111691355705261e-02,4.580570012331008911e-02,2.802814170718193054e-02,-1.682807207107543945e-01,1.994416117668151855e-01,-2.253950089216232300e-01,-8.819872885942459106e-02,-1.918398141860961914e-01,-1.308449804782867432e-01,-2.232465744018554688e-01,7.915652543306350708e-02,-4.297078400850296021e-02,6.897180527448654175e-02,-3.223031759262084961e-02,1.160215958952903748e-02,1.937125623226165771e-01,-2.322164475917816162e-01,-3.238282725214958191e-02,1.204434782266616821e-01,1.651680171489715576e-01,1.340328156948089600e-01,-1.239131316542625427e-01,-2.254550158977508545e-01,1.450154781341552734e-01,1.353635787963867188e-01,8.241652697324752808e-02,-1.679240614175796509e-01,-2.118838727474212646e-01,-1.828113943338394165e-02,-2.220829576253890991e-01,-7.109698653221130371e-02,1.073427647352218628e-01,-1.214253064244985580e-02,1.362870335578918457e-01,1.027430966496467590e-01,
6.942748427391052246e-01,6.539804935455322266e-01,2.303951084613800049e-01,4.044367671012878418e-01,2.514900863170623779e-01,1.422687526792287827e-02,-2.512140274047851562e-01,2.052621394395828247e-01,5.499416589736938477e-01,3.168035447597503662e-01,2.701661884784698486e-01,2.760720551013946533e-01,2.970487773418426514e-01,-1.044477149844169617e-01,-3.088362980633974075e-03,1.195039451122283936e-01,-1.121682673692703247e-01,-8.029426634311676025e-02,-9.031932801008224487e-02,-3.728947639465332031e-01,-1.164115965366363525e-01,-5.434370636940002441e-01,-3.624074459075927734e-01,1.282590031623840332e-01,2.220109254121780396e-01,3.223872557282447815e-02,3.540174365043640137e-01,2.090532779693603516e-01,-2.030239701271057129e-01,-1.144848298281431198e-02,3.717785775661468506e-01,6.551378369331359863e-01,7.769384235143661499e-02,4.055033028125762939e-01,2.224360555410385132e-01,-4.029507040977478027e-01,-3.476917147636413574e-01,-2.336542159318923950e-01,-1.513716131448745728e-01,1.893088221549987793e-01,2.064359188079833984e-01,-4.197095930576324463e-01,-2.251626253128051758e-01,-3.379465639591217041e-01,1.175267994403839111e-01,-5.889328569173812866e-02,9.839591383934020996e-02,7.978912591934204102e-01,8.791984319686889648e-01,-1.553226262331008911e-01,1.244723558425903320e+00,1.347446680068969727e+00,1.323404073715209961e+00,7.668863534927368164e-01,2.409144639968872070e-01,3.542035520076751709e-01,-1.716213822364807129e-01,1.502472162246704102e+00,1.206503987312316895e+00,1.206374645233154297e+00,
-1.625054329633712769e-01,6.012748554348945618e-02,-5.431286990642547607e-02,2.765977941453456879e-02,-2.114669829607009888e-01,-9.123026579618453979e-02,-2.054618448019027710e-01,1.962809823453426361e-02,-1.870581060647964478e-01,2.111873775720596313e-01,2.991881594061851501e-02,1.581821963191032410e-02,-1.787314116954803467e-01,1.846771687269210815e-01,-2.193647772073745728e-01,2.108598202466964722e-01,-8.937176316976547241e-03,-6.233446672558784485e-02,-2.062682509422302246e-01,-3.655668720602989197e-02,-2.242877781391143799e-01,-1.753076761960983276e-01,1.483964473009109497e-01,-3.614791482686996460e-02,1.828586608171463013e-01,1.151546165347099304e-01,-1.614245623350143433e-01,-1.447131633758544922e-01,-5.123569071292877197e-02,7.068899273872375488e-02,1.414934098720550537e-01,5.893478915095329285e-02,-4.239592701196670532e-02,7.600487768650054932e-02,1.134083643555641174e-01,-1.604688018560409546e-01,9.534522145986557007e-02,-4.557310044765472412e-02,-6.886500120162963867e-02,3.997391555458307266e-03,-2.054262608289718628e-01,-4.675216227769851685e-02,-1.985815912485122681e-01,-1.675356179475784302e-01,7.075554877519607544e-02,-9.893655776977539062e-02,-1.721502095460891724e-01,-8.549499511718750000e-02,2.038151621818542480e-01,-1.583408564329147339e-02,-1.859544068574905396e-01,-2.943333424627780914e-02,1.442879289388656616e-01,-8.432282507419586182e-02,2.142268568277359009e-01,2.027974873781204224e-01,6.470630876719951630e-03,-7.808035705238580704e-03,-1.363307237625122070e-01,1.133987307548522949e-01,
6.632739305496215820e-01,4.306861162185668945e-01,1.149313896894454956e-02,2.347115129232406616e-01,3.607157990336418152e-02,-8.549945056438446045e-02,-1.220312193036079407e-01,-2.485337108373641968e-01,1.169020961970090866e-02,-5.152296647429466248e-02,3.103349804878234863e-01,2.707163393497467041e-01,7.745432108640670776e-02,5.227391794323921204e-02,-2.936585061252117157e-02,-8.244666457176208496e-02,-2.374387383460998535e-01,-1.754647493362426758e-01,1.317369788885116577e-01,1.236028596758842468e-01,-3.137382911518216133e-03,1.461034715175628662e-01,5.722932890057563782e-02,2.562210261821746826e-01,-1.197394132614135742e-01,1.688081473112106323e-01,-8.155908435583114624e-02,1.396727710962295532e-01,-1.330166459083557129e-01,6.935989111661911011e-02,-4.534809291362762451e-01,-1.520453486591577530e-02,1.601809561252593994e-01,-9.516460821032524109e-03,2.615330815315246582e-01,-2.340909689664840698e-01,8.068964630365371704e-02,-1.445479243993759155e-01,1.349356323480606079e-01,1.320344507694244385e-01,1.021813824772834778e-01,1.938512548804283142e-02,1.424262225627899170e-01,3.048321306705474854e-01,1.715627610683441162e-01,-4.900623112916946411e-02,-3.328372240066528320e-01,3.818403184413909912e-01,5.879360437393188477e-01,-5.774973630905151367e-01,3.208067119121551514e-01,6.752070784568786621e-01,1.194701313972473145e+00,5.705938339233398438e-01,-3.620497286319732666e-01,3.881111443042755127e-01,-1.478199213743209839e-01,1.388258457183837891e+00,9.764910340309143066e-01,8.895553946495056152e-01,
4.926357865333557129e-01,4.072020649909973145e-01,3.238531351089477539e-01,-8.748649805784225464e-02,-2.878273725509643555e-01,-3.785487711429595947e-01,-1.685754209756851196e-01,-2.247760146856307983e-01,3.600076138973236084e-01,-2.676322460174560547e-01,3.090562522411346436e-01,-8.768063783645629883e-02,1.807631403207778931e-01,-2.107685059309005737e-01,1.015352159738540649e-01,3.894743323326110840e-02,6.867431569844484329e-03,6.787452846765518188e-02,7.471732050180435181e-02,2.858856320381164551e-01,1.770554296672344208e-02,-2.043486982583999634e-01,1.928228586912155151e-01,1.047761291265487671e-01,-6.608091294765472412e-02,-1.075404807925224304e-01,1.654393523931503296e-01,-1.565691828727722168e-01,1.712040305137634277e-01,3.377490341663360596e-01,-8.704865723848342896e-02,3.949511647224426270e-01,1.991291157901287079e-02,-8.733890205621719360e-02,-2.773980610072612762e-02,-1.517541408538818359e-01,-3.345613777637481689e-01,8.649549633264541626e-02,-1.283282041549682617e-01,-9.863791055977344513e-03,2.646323293447494507e-02,2.326927520334720612e-02,-5.176217108964920044e-02,1.240170747041702271e-01,-1.658480800688266754e-02,-8.459734916687011719e-02,-3.625731766223907471e-01,1.948497742414474487e-01,7.090626955032348633e-01,-8.976683616638183594e-01,8.132613897323608398e-01,1.038643717765808105e+00,1.141455650329589844e+00,7.443233728408813477e-01,-7.197714596986770630e-02,5.582824945449829102e-01,-5.661448240280151367e-01,1.677195310592651367e+00,8.635865449905395508e-01,6.737913191318511963e-02,
1.371200233697891235e-01,2.766017913818359375e-01,2.014158517122268677e-01,-7.795108854770660400e-02,-7.707782387733459473e-01,-3.547782450914382935e-02,6.453523635864257812e-01,-3.157403171062469482e-01,-6.429753899574279785e-01,-5.632086396217346191e-01,-5.197129845619201660e-01,-3.614137768745422363e-01,-1.558301597833633423e-01,-5.308171361684799194e-02,4.179375171661376953e-01,-1.693129986524581909e-01,5.035091936588287354e-02,-5.203419923782348633e-01,1.618770658969879150e-01,2.436005324125289917e-01,1.506312191486358643e-01,-3.744347989559173584e-01,3.650334477424621582e-02,4.597428143024444580e-01,3.062653541564941406e-01,1.633056700229644775e-01,2.565659284591674805e-01,2.366125285625457764e-01,7.992115803062915802e-03,-2.989721596240997314e-01,-4.643729925155639648e-01,-6.154986023902893066e-01,-1.040996089577674866e-01,5.735297203063964844e-01,1.714147031307220459e-01,-3.721521496772766113e-01,-6.664990186691284180e-01,4.291599616408348083e-02,6.327388286590576172e-01,-7.163066864013671875e-01,-1.311397433280944824e+00,-1.509828567504882812e-01,-3.095090389251708984e-01,1.962837278842926025e-01,-3.461237763985991478e-03,-7.273692488670349121e-01,-4.031476080417633057e-01,1.872331798076629639e-01,-1.011215090751647949e+00,5.492218732833862305e-01,-7.169851064682006836e-01,-6.532230377197265625e-01,-5.867538452148437500e-01,1.844829320907592773e-01,1.289257407188415527e+00,1.110651493072509766e+00,4.690608084201812744e-01,-6.585569977760314941e-01,-5.590149760246276855e-01,2.102222740650177002e-01,
-5.222898721694946289e-02,-1.611749529838562012e-01,2.365134656429290771e-02,5.551353096961975098e-02,-2.513095736503601074e-02,-2.122117727994918823e-01,2.159379124641418457e-01,9.325656294822692871e-02,8.955457806587219238e-02,-5.074764788150787354e-02,2.214770317077636719e-01,-1.514855027198791504e-01,1.015367805957794189e-01,2.036671340465545654e-01,6.250342726707458496e-02,2.365827560424804688e-03,-9.019151329994201660e-02,-1.644866019487380981e-01,-3.519520163536071777e-02,-6.057903170585632324e-02,-2.606472373008728027e-02,-7.239446043968200684e-02,-7.609143853187561035e-02,-4.790723323822021484e-03,-2.152045518159866333e-01,4.114642739295959473e-02,-1.225074380636215210e-01,-3.290769457817077637e-02,-2.010142356157302856e-01,-1.527073085308074951e-01,1.325236856937408447e-01,1.283003091812133789e-01,-3.036975860595703125e-03,-8.025537431240081787e-02,-1.609638333320617676e-02,1.533967256546020508e-01,2.130819857120513916e-01,-1.892208158969879150e-01,-2.228563278913497925e-01,1.302077174186706543e-01,-2.190652042627334595e-01,2.010641694068908691e-01,-1.646557003259658813e-01,-1.678388118743896484e-01,1.200369000434875488e-01,-7.944247126579284668e-02,-9.284441173076629639e-02,1.308132708072662354e-02,1.125243306159973145e-01,-1.491370499134063721e-01,1.255736351013183594e-01,4.128518700599670410e-02,1.492945849895477295e-01,-1.580208092927932739e-01,2.140905857086181641e-01,-8.909744024276733398e-02,2.131143510341644287e-01,1.300600171089172363e-02,1.862561404705047607e-01,-7.806563377380371094e-02,
-4.734519422054290771e-01,-4.919881522655487061e-01,-1.620547920465469360e-01,-5.658594146370887756e-02,1.847329884767532349e-01,3.211431801319122314e-01,2.858880162239074707e-01,4.348635300993919373e-02,1.408576816320419312e-01,5.094793811440467834e-02,6.249257829040288925e-03,-1.802404820919036865e-01,-8.219575136899948120e-02,6.844815611839294434e-02,-1.407207995653152466e-01,1.867328584194183350e-01,-3.326767124235630035e-03,-1.361330747604370117e-01,-4.155869036912918091e-02,1.801554858684539795e-01,1.541739702224731445e-01,2.139075100421905518e-01,1.898428350687026978e-01,-2.904428169131278992e-02,2.929492294788360596e-01,1.378388796001672745e-02,-2.238977234810590744e-03,1.124925464391708374e-01,-1.439200639724731445e-01,1.591535806655883789e-01,3.049625754356384277e-01,-2.347661107778549194e-01,1.632355153560638428e-01,-5.265755951404571533e-02,-1.436489224433898926e-01,2.065699994564056396e-01,-9.124261140823364258e-02,-2.803133130073547363e-01,-7.930488884449005127e-02,-2.716617286205291748e-02,-1.437381505966186523e-01,5.328953638672828674e-02,-3.020880818367004395e-01,-3.967390954494476318e-02,-3.314529955387115479e-01,-4.599874615669250488e-01,4.113223031163215637e-02,-3.733312785625457764e-01,-6.544713973999023438e-01,5.805262923240661621e-01,-3.445003926753997803e-01,-5.809969305992126465e-01,-8.993324041366577148e-01,-5.824359655380249023e-01,3.563794791698455811e-01,-6.232652664184570312e-01,1.287945061922073364e-01,-1.405804514884948730e+00,-1.026295781135559082e+00,-6.834382414817810059e-01,
1.317057907581329346e-01,-8.543612062931060791e-02,-6.096141934394836426e-01,-5.519118905067443848e-02,-2.867571115493774414e-01,-3.106532990932464600e-01,-3.870194032788276672e-02,2.594347000122070312e-01,4.583029150962829590e-01,2.824697494506835938e-01,-2.009620368480682373e-01,-7.397311925888061523e-01,-4.227349460124969482e-01,-4.812889099121093750e-01,-3.602176904678344727e-02,5.183399319648742676e-01,6.548430025577545166e-02,1.440997868776321411e-01,1.734203398227691650e-01,-1.834304444491863251e-02,2.892712354660034180e-01,4.195386767387390137e-01,2.223748117685317993e-01,-2.950477004051208496e-01,-4.595414698123931885e-01,-4.128156900405883789e-01,-1.482186466455459595e-01,-1.441985666751861572e-01,1.356361657381057739e-01,3.251284658908843994e-01,-1.310674995183944702e-01,5.255316495895385742e-01,2.755605876445770264e-01,-6.388500928878784180e-01,-5.277604460716247559e-01,-1.341392248868942261e-01,-9.292442351579666138e-02,3.119422495365142822e-01,-1.052721366286277771e-01,-3.785641789436340332e-01,6.121667474508285522e-02,2.874608635902404785e-01,-2.103365808725357056e-01,1.591413319110870361e-01,8.884715288877487183e-02,-6.614430993795394897e-02,-5.176109075546264648e-01,-1.201589498668909073e-02,-2.342305928468704224e-01,-2.941994965076446533e-01,-1.488738507032394409e-01,-4.199280440807342529e-01,-1.189691424369812012e+00,-8.129948377609252930e-01,-8.670237064361572266e-01,2.872487902641296387e-01,-3.554144501686096191e-01,1.555361002683639526e-01,-9.334319233894348145e-01,-2.458032965660095215e-01,
-1.359224468469619751e-01,2.233507931232452393e-01,3.291323781013488770e-02,-1.348899006843566895e-01,-6.125427782535552979e-02,-1.090865135192871094e-01,-1.421908140182495117e-01,1.817515790462493896e-01,1.937164962291717529e-01,-9.547153115272521973e-02,1.870092153549194336e-01,-9.802155196666717529e-02,2.227335572242736816e-01,-1.894989460706710815e-01,-1.236544474959373474e-01,-1.517093032598495483e-01,-2.114213705062866211e-01,-5.482666194438934326e-02,-1.476935744285583496e-01,-1.953311115503311157e-01,9.249308705329895020e-02,1.417356431484222412e-01,9.011861681938171387e-02,-1.330424249172210693e-01,1.766457259654998779e-01,7.879936695098876953e-02,-6.515644490718841553e-02,7.723584771156311035e-02,-2.065435349941253662e-01,-1.014709472656250000e-02,-9.538398683071136475e-02,-1.805447041988372803e-01,-1.987647265195846558e-01,1.150046288967132568e-02,5.339998006820678711e-02,1.917500495910644531e-01,-1.067671179771423340e-01,1.101665496826171875e-01,-8.993619680404663086e-02,1.879072189331054688e-02,1.957461237907409668e-03,-1.135337427258491516e-01,-2.006889730691909790e-01,-2.172857969999313354e-01,1.427453160285949707e-01,-1.120190471410751343e-01,-9.762911498546600342e-02,9.096655249595642090e-02,9.811073541641235352e-04,1.993335187435150146e-01,2.092139422893524170e-01,7.021138072013854980e-02,-9.609496593475341797e-02,-1.140616387128829956e-01,1.346105337142944336e-01,1.753896474838256836e-02,-3.007170557975769043e-02,7.947140932083129883e-02,1.711845099925994873e-01,-3.600655496120452881e-02,
5.816349983215332031e-01,4.913177192211151123e-01,-3.215481042861938477e-01,4.943139851093292236e-03,3.605586290359497070e-01,2.620163261890411377e-01,-4.628422856330871582e-01,-1.405577063560485840e-01,2.728174030780792236e-01,2.942708134651184082e-01,-1.306265592575073242e-01,-2.797778844833374023e-01,-1.713331416249275208e-02,9.826980531215667725e-02,3.201821818947792053e-02,-1.205456107854843140e-01,-3.214150369167327881e-01,-2.061110287904739380e-01,5.568820238113403320e-02,1.441888660192489624e-01,6.534639745950698853e-02,1.480786502361297607e-01,2.610076069831848145e-01,-2.075204849243164062e-01,-1.131907030940055847e-01,2.480686902999877930e-01,3.622947335243225098e-01,2.865448892116546631e-01,4.029533267021179199e-01,-1.890760613605380058e-03,-3.484917879104614258e-01,1.008182093501091003e-01,-2.579168379306793213e-01,-3.199539482593536377e-01,-2.172391116619110107e-02,-7.236694544553756714e-02,2.093141227960586548e-01,1.238785386085510254e-01,1.380936708301305771e-02,1.092706397175788879e-01,1.619254052639007568e-02,5.547959357500076294e-02,-1.175182908773422241e-01,-1.536041796207427979e-01,1.389344129711389542e-02,2.021797299385070801e-01,-7.729112356901168823e-02,4.308578670024871826e-01,5.928108096122741699e-01,-6.053478121757507324e-01,8.046292662620544434e-01,5.922948718070983887e-01,8.716684579849243164e-01,2.474997341632843018e-01,-1.031223535537719727e+00,-5.300100445747375488e-01,-5.907329320907592773e-01,2.649576067924499512e-01,6.275401115417480469e-01,7.293096780776977539e-01,
-5.640880465507507324e-01,3.224349319934844971e-01,-2.312269955873489380e-01,-8.700917363166809082e-01,-9.307028055191040039e-01,-3.679275512695312500e-01,-6.373506039381027222e-02,-1.514629423618316650e-01,-6.900989413261413574e-01,-4.737280607223510742e-01,-5.234614014625549316e-01,-8.530437946319580078e-01,-1.566827893257141113e-01,-1.011078804731369019e-02,-1.113323196768760681e-01,-3.625181019306182861e-01,-4.849908649921417236e-01,-2.522543370723724365e-01,-2.259176253573969007e-04,6.685651838779449463e-02,1.324621886014938354e-01,-3.044188916683197021e-01,1.200618743896484375e-01,3.413651883602142334e-01,1.104514375329017639e-01,1.122190505266189575e-01,1.352671813219785690e-02,2.696400284767150879e-01,-8.482213318347930908e-02,-5.216213688254356384e-02,9.784485399723052979e-02,1.507283747196197510e-01,3.309467136859893799e-01,9.461383521556854248e-02,-9.514436870813369751e-02,2.231070846319198608e-01,3.027420043945312500e-01,3.384750485420227051e-01,1.821934133768081665e-01,-3.384527564048767090e-02,-2.247159779071807861e-01,4.959304928779602051e-01,-1.268520355224609375e-01,2.477028965950012207e-02,-5.504828318953514099e-02,-7.615994662046432495e-02,2.210921607911586761e-02,-2.447929531335830688e-01,-2.041858881711959839e-01,1.165368437767028809e+00,3.368241488933563232e-01,6.562010943889617920e-02,-8.693311363458633423e-02,1.870957314968109131e-01,8.192862868309020996e-01,-2.733124792575836182e-02,-1.307604610919952393e-01,-2.058489918708801270e-01,-6.151081323623657227e-01,-6.490488052368164062e-01,
5.828450918197631836e-01,3.375754654407501221e-01,2.760665416717529297e-01,2.200869470834732056e-01,-1.503663808107376099e-01,-2.321197241544723511e-01,-3.962908089160919189e-01,-2.800264358520507812e-01,2.051770240068435669e-01,-2.418486773967742920e-01,3.698830604553222656e-01,-7.464579492807388306e-02,2.094559967517852783e-01,-1.939534842967987061e-01,2.510654330253601074e-01,-1.498768031597137451e-01,-3.303637206554412842e-01,-7.273203227669000626e-03,1.813611686229705811e-01,2.478398531675338745e-01,1.723515093326568604e-01,1.067360341548919678e-01,1.462043970823287964e-01,-5.513953045010566711e-02,-2.345214635133743286e-01,1.086614429950714111e-01,2.022068351507186890e-01,-1.157291904091835022e-01,3.342793583869934082e-01,2.435488104820251465e-01,-4.885933697223663330e-01,7.252149283885955811e-02,-2.027527540922164917e-01,-2.380738705396652222e-01,1.531878113746643066e-01,-1.993401348590850830e-01,9.039357304573059082e-02,2.408985495567321777e-01,-2.834118343889713287e-02,-1.477555632591247559e-01,-9.678511321544647217e-02,-3.068711236119270325e-02,1.563452035188674927e-01,2.242126911878585815e-01,3.028440475463867188e-01,2.580321766436100006e-02,-3.789024949073791504e-01,1.036979481577873230e-01,3.808560073375701904e-01,-8.010313510894775391e-01,4.815028607845306396e-01,9.584193229675292969e-01,9.061478376388549805e-01,2.571876347064971924e-01,-2.337748855352401733e-01,3.879885077476501465e-01,-7.224457859992980957e-01,1.047145009040832520e+00,5.894166827201843262e-01,-6.636799871921539307e-02,
-5.942029356956481934e-01,-2.627559006214141846e-01,-9.060595184564590454e-02,-1.240107715129852295e-01,7.934763282537460327e-02,-3.992490097880363464e-02,1.032587215304374695e-01,4.216701090335845947e-01,7.047083228826522827e-02,2.163472324609756470e-01,-6.831042468547821045e-02,3.337288042530417442e-03,2.526416070759296417e-02,-1.838148683309555054e-01,-2.018812298774719238e-01,8.164182305335998535e-02,3.417142480611801147e-02,1.927785873413085938e-01,-1.811916977167129517e-01,7.495812326669692993e-02,-2.398159950971603394e-01,-1.801304817199707031e-01,1.594817638397216797e-01,2.604479715228080750e-02,1.852825433015823364e-01,2.398193925619125366e-01,1.481966227293014526e-01,-1.744675040245056152e-01,1.854538321495056152e-01,1.288220435380935669e-01,2.465917319059371948e-01,-3.859252855181694031e-02,1.065691858530044556e-01,-8.678744733333587646e-02,2.510517835617065430e-03,3.452447801828384399e-02,2.413180321455001831e-01,2.550534307956695557e-01,1.235614717006683350e-02,1.544235944747924805e-01,-5.089155957102775574e-02,6.434028595685958862e-02,1.474526058882474899e-02,5.725363735109567642e-03,-2.824320793151855469e-01,1.162585839629173279e-01,3.552092611789703369e-01,-2.127324342727661133e-01,-5.422937273979187012e-01,5.686594247817993164e-01,-5.563495755195617676e-01,-5.856122970581054688e-01,-7.684921622276306152e-01,-4.514956474304199219e-01,3.936690092086791992e-01,-5.795212984085083008e-01,-3.998168930411338806e-02,-1.153483867645263672e+00,-8.725500106811523438e-01,-6.920500397682189941e-01,
6.089968681335449219e-01,3.908800780773162842e-01,2.798341512680053711e-01,1.642151623964309692e-01,4.711488187313079834e-01,4.606937468051910400e-01,-4.801770672202110291e-02,1.009167656302452087e-01,3.941564261913299561e-02,-2.963085174560546875e-01,5.905031040310859680e-02,1.960592903196811676e-02,7.958877086639404297e-02,2.184068970382213593e-02,-1.108453720808029175e-01,-4.438986256718635559e-02,-3.250903785228729248e-01,-1.754196584224700928e-01,-1.541171818971633911e-01,-1.925519108772277832e-01,-1.394148766994476318e-01,1.823679506778717041e-01,-8.820619434118270874e-02,3.665000796318054199e-01,1.953748762607574463e-01,2.756999433040618896e-01,3.535979092121124268e-01,1.415873616933822632e-01,-3.630497260019183159e-03,2.665494978427886963e-01,-2.908804714679718018e-01,-1.263367235660552979e-01,-1.223041582852602005e-02,-2.334295399487018585e-02,9.880036860704421997e-02,1.147663965821266174e-01,3.968887776136398315e-02,-9.745338559150695801e-02,5.647594854235649109e-02,8.332054316997528076e-02,1.072808280587196350e-01,8.880800753831863403e-02,1.359692867845296860e-02,6.386825442314147949e-02,1.869174987077713013e-01,3.806205987930297852e-01,1.447983533143997192e-01,3.415689766407012939e-01,4.820540845394134521e-01,-9.021246433258056641e-01,-1.424923259764909744e-02,3.747682571411132812e-01,1.034354448318481445e+00,2.304593920707702637e-01,-2.436505854129791260e-01,2.053041905164718628e-01,2.978744208812713623e-01,8.928955793380737305e-01,8.497666120529174805e-01,8.227494955062866211e-01,
1.528089642524719238e-01,-5.989274382591247559e-02,2.056744396686553955e-01,1.849676668643951416e-02,-1.466309726238250732e-01,2.008545696735382080e-01,2.504539489746093750e-02,-1.846901923418045044e-01,-7.728344202041625977e-02,-1.107023954391479492e-01,-6.426054239273071289e-02,-3.121876716613769531e-02,-1.784396171569824219e-02,7.070615887641906738e-03,-1.193738132715225220e-01,9.592813253402709961e-02,-4.699693620204925537e-02,-1.607203185558319092e-01,3.933617472648620605e-02,-7.722656428813934326e-02,-4.047474265098571777e-02,3.078272938728332520e-02,-2.209863066673278809e-02,-7.514877617359161377e-02,1.006567478179931641e-02,-1.413010954856872559e-01,6.172090768814086914e-03,-6.604921817779541016e-02,-7.680624723434448242e-02,1.023996472358703613e-01,5.707493424415588379e-02,-1.671869605779647827e-01,-1.445532441139221191e-01,-1.865427345037460327e-01,-3.193464875221252441e-02,-2.186357676982879639e-01,-5.137811601161956787e-02,2.116630971431732178e-01,1.636252999305725098e-01,2.188220322132110596e-01,-1.156125441193580627e-01,-2.199710756540298462e-01,8.171644806861877441e-02,-9.412977099418640137e-02,1.484108269214630127e-01,1.228939592838287354e-01,1.880590915679931641e-01,8.970278501510620117e-02,-1.016660109162330627e-01,2.068127691745758057e-02,1.734238266944885254e-01,1.014429628849029541e-01,1.133789718151092529e-01,-5.701988935470581055e-03,-1.076337546110153198e-01,-9.382349252700805664e-02,-1.332695335149765015e-01,-1.147900447249412537e-01,3.236070275306701660e-02,-1.775758713483810425e-01,
-3.283642232418060303e-02,-2.179249674081802368e-01,1.288560032844543457e-01,9.395986795425415039e-02,-2.511800825595855713e-02,-9.697940945625305176e-02,-2.102422714233398438e-02,9.016692638397216797e-04,1.917059123516082764e-01,-1.187103986740112305e-01,8.456453680992126465e-03,1.761553287506103516e-01,-1.561825573444366455e-01,-1.017657592892646790e-01,-7.772886753082275391e-02,-1.730885952711105347e-01,-7.107567787170410156e-02,-2.167694270610809326e-01,-2.127062529325485229e-01,-6.961973011493682861e-02,7.600155472755432129e-02,-1.836189925670623779e-01,9.791749715805053711e-02,7.866188883781433105e-02,7.136341929435729980e-02,2.161395549774169922e-01,-7.141330838203430176e-02,-1.222443431615829468e-01,-8.318699896335601807e-02,-2.080558985471725464e-01,-7.674504816532135010e-02,-1.355634927749633789e-01,-1.976491808891296387e-01,1.383742094039916992e-01,-1.343878507614135742e-01,-1.842429637908935547e-01,-3.900946676731109619e-02,1.736577153205871582e-01,1.289007663726806641e-01,1.515178680419921875e-01,-1.504857391119003296e-01,-1.477124989032745361e-01,-7.094357907772064209e-02,-2.585366368293762207e-03,7.595458626747131348e-02,-2.874274551868438721e-02,-1.770872175693511963e-01,1.356242299079895020e-01,3.974980115890502930e-02,-1.265075504779815674e-01,5.884021520614624023e-02,1.810293197631835938e-01,1.748894751071929932e-01,-3.452901542186737061e-02,5.540862679481506348e-02,-8.869428932666778564e-02,-5.399541556835174561e-02,1.566560268402099609e-01,-8.325737714767456055e-02,-1.946165263652801514e-01,
4.996709898114204407e-02,-3.437274321913719177e-02,1.406218260526657104e-01,-1.983749270439147949e-01,1.031965240836143494e-01,1.869490593671798706e-01,1.146823763847351074e-01,-4.284599795937538147e-02,-2.254358381032943726e-01,-2.031214833259582520e-01,-9.602019935846328735e-02,-1.451250314712524414e-01,-8.606956899166107178e-02,9.645842015743255615e-02,-3.680068254470825195e-02,-1.749951541423797607e-01,-3.818197920918464661e-02,1.100072115659713745e-01,1.337927728891372681e-01,7.639322429895401001e-02,-5.798028036952018738e-02,-1.897021979093551636e-01,8.530651032924652100e-02,1.233657076954841614e-01,3.867526724934577942e-02,-1.166308149695396423e-01,7.877615839242935181e-02,-2.127244323492050171e-01,1.005620956420898438e-01,-1.834860146045684814e-01,-1.520744115114212036e-01,1.573954075574874878e-01,-1.896660327911376953e-01,-1.484666019678115845e-01,5.021375045180320740e-02,2.040457576513290405e-01,-1.717502921819686890e-01,1.064320374280214310e-02,1.219952255487442017e-01,4.549803584814071655e-02,9.491970390081405640e-02,-1.803738921880722046e-01,-7.580542564392089844e-02,2.036199569702148438e-01,-1.050481721758842468e-01,-1.937880963087081909e-01,-2.139393687248229980e-01,-2.144925892353057861e-01,2.679500915110111237e-02,-3.385785594582557678e-02,-2.055658698081970215e-01,2.070643007755279541e-01,4.125171899795532227e-02,-1.599530130624771118e-01,7.720128633081912994e-04,9.455440938472747803e-02,-5.311160907149314880e-02,-3.895511850714683533e-02,5.427312105894088745e-02,-2.762049809098243713e-02,
6.514161229133605957e-01,4.074687063694000244e-01,6.210333704948425293e-01,-6.015970110893249512e-01,-8.686361312866210938e-01,-6.175931096076965332e-01,-1.108386740088462830e-01,-2.342303693294525146e-01,-1.092066913843154907e-01,-3.445163965225219727e-01,2.375706136226654053e-01,1.615030616521835327e-01,1.603628844022750854e-01,-3.970301896333694458e-02,5.338534712791442871e-01,1.169852539896965027e-01,3.326799273490905762e-01,-2.086268272250890732e-03,4.421078786253929138e-02,4.185308516025543213e-01,9.599591046571731567e-02,2.079897969961166382e-01,1.192901805043220520e-01,2.775862216949462891e-01,2.600480802357196808e-02,-6.101750731468200684e-01,-7.415583133697509766e-01,-4.415264129638671875e-01,-6.054755449295043945e-01,-1.250687427818775177e-02,-3.489131629467010498e-01,8.833743631839752197e-02,3.674877285957336426e-01,4.552303254604339600e-01,6.025977730751037598e-01,-4.115884304046630859e-01,-1.081015467643737793e-01,-2.084102854132652283e-02,2.079194486141204834e-01,-3.204101920127868652e-01,-3.299765288829803467e-01,1.745403558015823364e-01,4.847683012485504150e-02,-1.559309512376785278e-01,2.201901227235794067e-01,-2.564772665500640869e-01,-5.587929487228393555e-01,-2.790224254131317139e-01,-3.856340944766998291e-01,-1.078523874282836914e+00,-3.273612260818481445e-01,6.077235937118530273e-01,4.961211383342742920e-01,3.604084551334381104e-01,8.454947173595428467e-02,1.421608090400695801e+00,-5.761315226554870605e-01,1.621022224426269531e+00,8.110995292663574219e-01,2.255220264196395874e-01,
-4.185774624347686768e-01,-1.235968992114067078e-01,-3.129808008670806885e-01,-4.957651719450950623e-02,-1.840697079896926880e-01,2.075820267200469971e-01,4.024209678173065186e-01,1.013071238994598389e-01,-2.498576939105987549e-01,1.066850945353507996e-01,-1.854079961776733398e-01,-1.882642805576324463e-01,2.915374562144279480e-02,-5.293261259794235229e-02,9.117931127548217773e-03,1.032522693276405334e-01,2.239055931568145752e-01,2.292557358741760254e-01,-1.399783492088317871e-01,-6.863092631101608276e-02,1.018011346459388733e-01,-6.590601801872253418e-02,2.215300947427749634e-01,-1.937342137098312378e-01,3.649483993649482727e-02,9.060055762529373169e-02,1.074825748801231384e-01,2.268576994538307190e-02,1.327144950628280640e-01,-1.851221323013305664e-01,2.956569492816925049e-01,-1.341289877891540527e-01,-2.172408550977706909e-01,2.478270381689071655e-01,-2.294719815254211426e-01,3.763170838356018066e-01,8.851422369480133057e-02,-8.572372049093246460e-02,2.104905247688293457e-01,3.218953907489776611e-01,-3.331527113914489746e-02,-1.180245429277420044e-01,8.050899952650070190e-02,-1.266540735960006714e-01,-1.895962804555892944e-01,-3.591324016451835632e-02,1.857840418815612793e-01,-2.431250810623168945e-01,-4.982367455959320068e-01,7.933529019355773926e-01,-5.464269518852233887e-01,-7.828470468521118164e-01,-9.254484176635742188e-01,-3.355560004711151123e-01,4.771535396575927734e-01,-2.586867809295654297e-01,2.801130115985870361e-01,-1.302020192146301270e+00,-8.032486438751220703e-01,-7.976806163787841797e-01,
2.907473146915435791e-01,7.583968341350555420e-02,2.254747599363327026e-01,1.122839450836181641e-01,1.742984205484390259e-01,-1.242625489830970764e-01,-4.080040007829666138e-02,-4.583942294120788574e-01,1.311248987913131714e-01,-9.449196606874465942e-02,3.048594668507575989e-02,1.805364638566970825e-01,-1.767840832471847534e-01,-1.998889595270156860e-01,-2.019075751304626465e-01,-1.855863481760025024e-01,1.184648424386978149e-01,-1.673952937126159668e-01,1.522503942251205444e-01,-2.124203592538833618e-01,-4.757161438465118408e-02,1.078384444117546082e-01,3.151907622814178467e-01,4.104254245758056641e-01,-1.476172357797622681e-01,3.835153952240943909e-02,1.434170156717300415e-01,1.924793124198913574e-01,1.301634013652801514e-01,7.566387206315994263e-02,-2.878836989402770996e-01,3.031443953514099121e-01,1.557095348834991455e-01,-2.725862562656402588e-01,-1.129043474793434143e-01,-1.737346649169921875e-01,-2.216797024011611938e-01,-2.115529179573059082e-01,9.446151554584503174e-02,-1.253004744648933411e-02,4.015566706657409668e-01,3.452384844422340393e-03,3.398401141166687012e-01,3.284898698329925537e-01,-1.800228059291839600e-01,-5.823618266731500626e-03,-2.890737950801849365e-01,3.080375492572784424e-01,7.251265645027160645e-01,-8.427737355232238770e-01,3.610646128654479980e-01,6.143308281898498535e-01,9.572505354881286621e-01,4.912488162517547607e-02,-6.301403641700744629e-01,4.020649194717407227e-01,1.519870460033416748e-01,1.134881258010864258e+00,9.556027054786682129e-01,7.802527546882629395e-01,
-2.260980606079101562e-01,3.573243319988250732e-02,-1.822369992733001709e-01,5.212070536799728870e-04,-9.833773970603942871e-02,-1.571559309959411621e-01,-1.195896640419960022e-01,1.342422962188720703e-01,-1.265262365341186523e-01,1.278775483369827271e-01,-1.442935764789581299e-01,1.510894596576690674e-01,1.344716250896453857e-01,1.974661201238632202e-01,-1.814621239900588989e-01,2.519929036498069763e-02,-1.596878021955490112e-01,-1.236665621399879456e-01,-1.498811095952987671e-01,2.080338001251220703e-01,-7.034515589475631714e-02,-1.057423576712608337e-01,1.905439943075180054e-01,1.868402585387229919e-03,-1.033969745039939880e-01,-7.857204414904117584e-03,-1.328664422035217285e-01,3.925184905529022217e-02,-2.998770400881767273e-02,-2.199669480323791504e-01,-9.233399480581283569e-02,1.814096271991729736e-01,-1.100639998912811279e-01,-1.291204541921615601e-01,-1.015201658010482788e-01,2.994579449295997620e-02,1.301385015249252319e-01,9.029226494021713734e-04,-2.229696065187454224e-01,2.110454142093658447e-01,-7.310067862272262573e-02,-2.444573864340782166e-02,9.847154468297958374e-02,2.089639306068420410e-01,-6.965412199497222900e-02,-1.571166962385177612e-01,1.960562169551849365e-01,-2.246092632412910461e-02,7.401970215141773224e-03,3.743651509284973145e-02,5.841660872101783752e-02,1.876101456582546234e-02,1.406416296958923340e-01,-1.365990191698074341e-01,-2.107827961444854736e-01,-1.625181883573532104e-01,-9.791939519345760345e-04,-5.078296735882759094e-02,-1.186112239956855774e-01,-5.046125128865242004e-02,
3.433144688606262207e-01,3.383821845054626465e-01,3.086256384849548340e-01,4.191782772541046143e-01,1.942350566387176514e-01,-2.320113219320774078e-02,3.648549783974885941e-03,-3.900313675403594971e-01,1.396356523036956787e-01,7.818136364221572876e-02,2.208456993103027344e-01,1.875207573175430298e-01,1.628285348415374756e-01,-1.173881143331527710e-01,4.075698554515838623e-02,1.707449704408645630e-01,9.071789681911468506e-03,6.107264757156372070e-02,-5.441423039883375168e-03,1.252782940864562988e-01,5.028086155652999878e-02,-1.855631172657012939e-01,-1.063005253672599792e-01,5.268459767103195190e-02,9.703363478183746338e-02,1.330403685569763184e-01,1.362361460924148560e-01,2.242679744958877563e-01,-1.188713312149047852e-01,2.645459473133087158e-01,-3.564850687980651855e-01,5.041735619306564331e-02,-2.066678181290626526e-02,-7.538657635450363159e-02,2.433721423149108887e-01,-3.017192482948303223e-01,-1.367930620908737183e-01,-9.659050405025482178e-02,-1.332229524850845337e-01,-9.092903137207031250e-02,2.127680778503417969e-01,1.785533130168914795e-02,1.832757741212844849e-01,3.224523067474365234e-01,6.251975148916244507e-02,1.615542620420455933e-01,-4.118727985769510269e-03,1.336433738470077515e-01,2.698774337768554688e-01,-5.239083766937255859e-01,2.291937917470932007e-01,5.724204182624816895e-01,9.794604778289794922e-01,2.932330965995788574e-01,-1.562639474868774414e-01,5.689358711242675781e-01,-1.586810201406478882e-01,1.150728464126586914e+00,8.268138170242309570e-01,7.183125615119934082e-01,
3.096190094947814941e-01,2.136591374874114990e-01,-8.855940401554107666e-02,2.941036224365234375e-01,3.007517568767070770e-02,-2.168672084808349609e-01,-1.652283519506454468e-01,-5.465400815010070801e-01,1.435507833957672119e-01,2.842844463884830475e-02,2.553806900978088379e-01,2.697433233261108398e-01,7.282003760337829590e-02,-1.565566360950469971e-01,-1.169732138514518738e-01,-1.589070558547973633e-01,-2.804570831358432770e-02,-2.113350294530391693e-02,-2.062052488327026367e-03,-5.645653232932090759e-02,-2.474930323660373688e-02,2.068138867616653442e-01,2.351804226636886597e-01,3.396236803382635117e-03,-4.509462043642997742e-02,1.665971577167510986e-01,1.280628591775894165e-01,3.860045969486236572e-02,-1.426155418157577515e-01,5.999729409813880920e-02,-1.520441472530364990e-01,-2.267031744122505188e-02,7.902328670024871826e-02,5.823357030749320984e-02,2.411107867956161499e-01,-1.280812621116638184e-01,9.138087183237075806e-02,2.814178727567195892e-02,7.169536501169204712e-02,-2.572061717510223389e-01,2.051022648811340332e-01,5.956470966339111328e-02,-1.399286389350891113e-01,4.693971201777458191e-02,1.290429532527923584e-01,2.339171618223190308e-02,-2.198894023895263672e-01,2.670089006423950195e-01,2.927362918853759766e-01,-4.909120798110961914e-01,4.437716305255889893e-01,6.062423586845397949e-01,9.966133832931518555e-01,3.736128211021423340e-01,-5.573333501815795898e-01,5.759272575378417969e-01,-4.024189412593841553e-01,9.022089242935180664e-01,1.007209300994873047e+00,8.222473263740539551e-01,
4.062612056732177734e-01,7.331997156143188477e-01,1.400259584188461304e-01,-2.243624031543731689e-01,-1.148761361837387085e-01,-1.299066841602325439e-01,-2.589915394783020020e-01,4.444377869367599487e-02,2.099442631006240845e-01,-1.603188067674636841e-01,-1.111147925257682800e-01,-6.480205804109573364e-02,3.972135484218597412e-02,5.450709164142608643e-02,2.075019106268882751e-02,3.419896066188812256e-01,-1.672289669513702393e-01,2.938137054443359375e-01,9.213717281818389893e-02,7.336660474538803101e-02,1.470814347267150879e-01,5.631833523511886597e-02,1.577611863613128662e-01,3.311070501804351807e-01,-1.578060239553451538e-01,-1.713543981313705444e-01,-1.088329777121543884e-02,-4.776624217629432678e-02,-1.374058425426483154e-01,1.900867223739624023e-01,-2.101833373308181763e-02,1.748123466968536377e-01,4.191584289073944092e-01,-6.394246965646743774e-02,7.778862118721008301e-02,-8.071498870849609375e-01,-7.308563590049743652e-01,-3.038935959339141846e-01,-2.218274772167205811e-01,1.638894230127334595e-01,-9.674441069364547729e-03,4.598195850849151611e-01,7.387803401798009872e-03,-5.053055286407470703e-02,3.190505504608154297e-02,6.934881210327148438e-02,1.648961901664733887e-01,3.558925688266754150e-01,9.004770517349243164e-01,-6.743501424789428711e-01,7.771561741828918457e-01,1.461042881011962891e+00,1.460921883583068848e+00,5.934095978736877441e-01,-1.930523067712783813e-01,6.180908679962158203e-01,-9.223169088363647461e-02,1.678599357604980469e+00,1.003151059150695801e+00,1.773027516901493073e-02,
5.937008857727050781e-01,4.312828481197357178e-01,2.227092683315277100e-01,5.020807310938835144e-02,-9.726641327142715454e-02,-2.565952241420745850e-01,-3.507805243134498596e-02,-2.504988014698028564e-01,3.658137097954750061e-02,-2.516485154628753662e-01,1.764057725667953491e-01,1.106545105576515198e-01,-5.478503182530403137e-02,1.807125806808471680e-01,-1.330815553665161133e-01,9.118130058050155640e-02,8.739940822124481201e-02,-1.288220882415771484e-01,-5.844736099243164062e-02,1.929976791143417358e-01,-1.043716296553611755e-01,9.576383978128433228e-02,7.750944048166275024e-02,1.720893830060958862e-01,-2.540737688541412354e-01,-4.120570048689842224e-02,2.082042843103408813e-01,-5.942983925342559814e-02,1.625286489725112915e-01,2.419394552707672119e-01,-5.553640425205230713e-02,-4.891683161258697510e-02,1.644204258918762207e-01,3.394595533609390259e-02,2.816711068153381348e-01,-1.810405589640140533e-02,1.105301231145858765e-01,-1.470073908567428589e-01,-1.366462409496307373e-01,-1.553460955619812012e-01,3.149792924523353577e-02,1.041130647063255310e-01,-4.887989722192287445e-03,1.344956457614898682e-01,5.986529961228370667e-02,1.529701203107833862e-01,-3.452265262603759766e-01,2.967218458652496338e-01,3.936327695846557617e-01,-6.199364662170410156e-01,3.494521975517272949e-01,6.092026233673095703e-01,1.101466059684753418e+00,2.634684741497039795e-01,-2.319687306880950928e-01,5.282068252563476562e-01,1.549235284328460693e-01,1.246451139450073242e+00,1.067195534706115723e+00,6.646404266357421875e-01,
-1.272834986448287964e-01,1.083315610885620117e-01,-4.144428670406341553e-02,-6.803588569164276123e-02,1.473149955272674561e-01,9.357661008834838867e-02,-2.150841057300567627e-02,-1.797814667224884033e-02,-1.996604800224304199e-01,-1.229432597756385803e-01,-1.919774115085601807e-01,2.105538845062255859e-01,-1.003113538026809692e-01,-1.442838013172149658e-01,-1.052842959761619568e-01,-2.198409885168075562e-01,1.711322069168090820e-01,1.707012355327606201e-01,-1.726498901844024658e-01,4.811173677444458008e-02,-5.701789259910583496e-02,-3.908441960811614990e-02,-8.244147896766662598e-02,-1.130903512239456177e-01,-8.087381720542907715e-03,-1.415689289569854736e-02,7.952696084976196289e-02,-2.874314785003662109e-03,2.895179390907287598e-02,8.342906832695007324e-03,8.950731158256530762e-02,7.959654927253723145e-02,-1.326480209827423096e-01,-1.724804043769836426e-01,1.955730319023132324e-01,1.960730552673339844e-02,-1.228249073028564453e-01,1.007640659809112549e-01,-4.453766345977783203e-02,-1.471595019102096558e-01,-1.604829132556915283e-01,-5.020749568939208984e-02,1.447478830814361572e-01,-6.596125662326812744e-02,7.363715767860412598e-02,-1.151709556579589844e-01,-8.137534558773040771e-02,-1.001775264739990234e-02,-8.716808259487152100e-02,-6.687240302562713623e-02,1.549606323242187500e-01,-1.274594366550445557e-01,2.059322595596313477e-01,1.028890907764434814e-01,7.319653034210205078e-02,1.394555866718292236e-01,-8.091622591018676758e-02,1.631453633308410645e-01,-2.130069732666015625e-01,-1.584922373294830322e-01,
-1.030744519084692001e-02,
1.452913731336593628e-01,
3.217684626579284668e-01,
2.370302975177764893e-01,
-2.047163248062133789e-01,
-2.064787447452545166e-01,
1.195581443607807159e-02,
2.463648170232772827e-01,
1.940170675516128540e-02,
-3.042880296707153320e-01,
3.212830424308776855e-01,
-2.033082544803619385e-01,
-4.519491195678710938e-01,
5.765088796615600586e-01,
-3.508450388908386230e-01,
-2.045239806175231934e-01,
2.487476766109466553e-01,
-1.234690472483634949e-02,
4.172798991203308105e-01,
-2.043046653270721436e-01,
-3.723162114620208740e-01,
-2.937540709972381592e-01,
-2.913214266300201416e-01,
0.000000000000000000e+00,
3.085798621177673340e-01,
-1.419753283262252808e-01,
2.745784521102905273e-01,
4.249962270259857178e-01,
-4.243324995040893555e-01,
2.991346716880798340e-01,
-3.875858485698699951e-01,
3.009504377841949463e-01,
-2.257302701473236084e-01,
-1.302298251539468765e-02,
-2.460267990827560425e-01,
-8.240859955549240112e-03,
-2.287796735763549805e-01,
-2.600825726985931396e-01,
7.303149104118347168e-01,
0.000000000000000000e+00,
2.487542927265167236e-01,
8.742493391036987305e-02,
0.000000000000000000e+00,
-4.306570291519165039e-01,
3.778893947601318359e-01,
-2.628311216831207275e-01,
2.651987373828887939e-01,
-3.244787156581878662e-01,
0.000000000000000000e+00,
0.000000000000000000e+00,
-1.534632313996553421e-02,
2.522094547748565674e-02,
2.788815200328826904e-01,
-2.404730916023254395e-01,
-1.157874427735805511e-02,
-2.107995599508285522e-01,
-2.935559749603271484e-01,
-1.354515254497528076e-01,
-2.365513741970062256e-01,
0.000000000000000000e+00,
-2.852193415164947510e-01,1.189092874526977539e+00,5.781617164611816406e-01,1.324324369430541992e+00,-7.541300654411315918e-01,-6.775851249694824219e-01,-1.841704130172729492e+00,4.023766815662384033e-01,-2.155862092971801758e+00,-1.599410176277160645e+00,8.269795179367065430e-01,-3.974114656448364258e-01,-1.414739012718200684e+00,2.298883199691772461e+00,-4.917301833629608154e-01,-6.601960659027099609e-01,3.159692883491516113e-01,2.666604146361351013e-02,1.212340474128723145e+00,-6.044461131095886230e-01,-7.616379261016845703e-01,-1.637386441230773926e+00,-1.004598021507263184e+00,2.612708806991577148e-01,2.921745181083679199e-01,-1.055444836616516113e+00,3.505918383598327637e-01,1.453377604484558105e+00,-1.478258848190307617e+00,3.713451325893402100e-01,-1.956854462623596191e+00,6.977173686027526855e-01,-4.685505628585815430e-01,2.450223714113235474e-01,-1.773651480674743652e+00,-2.691789269447326660e-01,-4.938163161277770996e-01,-4.500643312931060791e-01,3.115651845932006836e+00,-2.929823994636535645e-01,5.494767427444458008e-01,-2.029087543487548828e+00,1.754579544067382812e-01,-1.095118999481201172e+00,1.281617283821105957e+00,-8.654928207397460938e-01,3.052289783954620361e-01,-7.709906697273254395e-01,-2.406752705574035645e-01,1.876168251037597656e-01,-8.154885470867156982e-02,-1.500392317771911621e+00,4.808751940727233887e-01,-9.824213981628417969e-01,1.454290598630905151e-01,-4.982189536094665527e-01,-4.666949212551116943e-01,-1.269044160842895508e+00,-4.957241415977478027e-01,-1.565618067979812622e-01,
2.249551266431808472e-01,
