// Neural Network File Format by Kyle Julian, Stanford 2016
2,60,1,60,
60,60,1,
0,
-3.4028235e+38,-3.4028235e+38,-3.4028235e+38,-3.4028235e+38,-3.4028235e+38,-3.4028235e+38,-3.4028235e+38,-3.4028235e+38,-3.4028235e+38,-3.4028235e+38,-3.4028235e+38,-3.4028235e+38,-3.4028235e+38,-3.4028235e+38,-3.4028235e+38,-3.4028235e+38,-3.4028235e+38,-3.4028235e+38,-3.4028235e+38,-3.4028235e+38,-3.4028235e+38,-3.4028235e+38,-3.4028235e+38,-3.4028235e+38,-3.4028235e+38,-3.4028235e+38,-3.4028235e+38,-3.4028235e+38,-3.4028235e+38,-3.4028235e+38,-3.4028235e+38,-3.4028235e+38,-3.4028235e+38,-3.4028235e+38,-3.4028235e+38,-3.4028235e+38,-3.4028235e+38,-3.4028235e+38,-3.4028235e+38,-3.4028235e+38,-3.4028235e+38,-3.4028235e+38,-3.4028235e+38,-3.4028235e+38,-3.4028235e+38,-3.4028235e+38,-3.4028235e+38,-3.4028235e+38,-3.4028235e+38,-3.4028235e+38,-3.4028235e+38,-3.4028235e+38,-3.4028235e+38,-3.4028235e+38,-3.4028235e+38,-3.4028235e+38,-3.4028235e+38,-3.4028235e+38,-3.4028235e+38,-3.4028235e+38,
3.4028235e+38,3.4028235e+38,3.4028235e+38,3.4028235e+38,3.4028235e+38,3.4028235e+38,3.4028235e+38,3.4028235e+38,3.4028235e+38,3.4028235e+38,3.4028235e+38,3.4028235e+38,3.4028235e+38,3.4028235e+38,3.4028235e+38,3.4028235e+38,3.4028235e+38,3.4028235e+38,3.4028235e+38,3.4028235e+38,3.4028235e+38,3.4028235e+38,3.4028235e+38,3.4028235e+38,3.4028235e+38,3.4028235e+38,3.4028235e+38,3.4028235e+38,3.4028235e+38,3.4028235e+38,3.4028235e+38,3.4028235e+38,3.4028235e+38,3.4028235e+38,3.4028235e+38,3.4028235e+38,3.4028235e+38,3.4028235e+38,3.4028235e+38,3.4028235e+38,3.4028235e+38,3.4028235e+38,3.4028235e+38,3.4028235e+38,3.4028235e+38,3.4028235e+38,3.4028235e+38,3.4028235e+38,3.4028235e+38,3.4028235e+38,3.4028235e+38,3.4028235e+38,3.4028235e+38,3.4028235e+38,3.4028235e+38,3.4028235e+38,3.4028235e+38,3.4028235e+38,3.4028235e+38,3.4028235e+38,
0.0,0.0,0.0,0.0,0.0,0.0,0.0,0.0,0.0,0.0,0.0,0.0,0.0,0.0,0.0,0.0,0.0,0.0,0.0,0.0,0.0,0.0,0.0,0.0,0.0,0.0,0.0,0.0,0.0,0.0,0.0,0.0,0.0,0.0,0.0,0.0,0.0,0.0,0.0,0.0,0.0,0.0,0.0,0.0,0.0,0.0,0.0,0.0,0.0,0.0,0.0,0.0,0.0,0.0,0.0,0.0,0.0,0.0,0.0,0.0,0.0,
1.0,1.0,1.0,1.0,1.0,1.0,1.0,1.0,1.0,1.0,1.0,1.0,1.0,1.0,1.0,1.0,1.0,1.0,1.0,1.0,1.0,1.0,1.0,1.0,1.0,1.0,1.0,1.0,1.0,1.0,1.0,1.0,1.0,1.0,1.0,1.0,1.0,1.0,1.0,1.0,1.0,1.0,1.0,1.0,1.0,1.0,1.0,1.0,1.0,1.0,1.0,1.0,1.0,1.0,1.0,1.0,1.0,1.0,1.0,1.0,1.0,
8.43482e-02,4.97434e-01,-1.71473e-01,-9.85336e-02,5.11028e-01,1.77162e-02,8.48160e-02,2.46889e-01,3.10540e-02,2.15152e-01,3.81605e-01,-2.53295e-01,-3.94223e-02,4.65799e-02,-2.87514e-01,4.04843e-01,7.64280e-01,-4.14613e-01,3.45875e-01,-4.69513e-02,-3.41599e-01,-1.29831e-01,4.77632e-01,-3.00393e-01,6.15430e-02,-1.72373e-01,3.09215e-01,9.77655e-02,9.33212e-02,5.14425e-01,3.76301e-01,8.46086e-02,9.10264e-03,6.49787e-01,-8.86865e-02,5.74584e-01,-2.92197e-02,4.26153e-03,-2.38927e-01,-1.03190e-01,-7.64340e-02,-1.77637e-01,2.56191e-01,-3.21199e-02,4.34161e-01,2.27968e-01,-1.47097e-01,-3.85175e-01,-3.94383e-01,-1.18006e-01,-9.87888e-02,-1.28819e-01,-2.97451e-01,-3.49634e-01,-5.89161e-02,4.93283e-01,-5.02495e-01,3.31090e-01,1.86257e-01,-2.52710e-03,
-3.63321e-02,2.36098e-01,-2.57922e-01,-2.70516e-03,3.25484e-01,8.62464e-03,-9.52342e-02,2.59786e-01,-1.16365e-01,2.86823e-01,3.05618e-01,1.84270e-01,-6.85611e-03,-8.79871e-02,-1.77774e-01,2.74597e-01,6.11608e-01,-4.16678e-02,1.51990e-01,-1.13078e-01,-9.72947e-03,-1.44300e-02,3.53571e-02,6.78878e-03,-3.53461e-02,1.29588e-01,6.57554e-02,3.20090e-02,1.35253e-02,1.52037e-01,1.07769e-01,-1.14473e-01,9.27607e-02,4.42180e-01,2.98830e-02,1.08117e-01,-1.16978e-01,-4.02248e-03,-9.89872e-03,1.56059e-02,1.83156e-01,1.05364e-01,-1.12692e-02,2.19046e-02,5.33321e-02,7.93801e-02,8.97188e-02,-9.88852e-02,-2.44396e-01,-2.71906e-02,-8.72038e-02,-6.37331e-02,-3.21559e-02,-1.66693e-01,3.61402e-02,2.16012e-01,-2.75425e-01,3.12311e-01,-4.31785e-02,1.22469e-01,
6.41566e-02,-8.45241e-02,2.76671e-01,-1.01100e-02,-5.26200e-03,-5.25979e-04,4.96697e-02,-8.94481e-02,-3.88436e-02,6.21143e-02,1.47174e-02,5.01398e-02,-2.36270e-01,-2.32063e-02,-3.09351e-02,8.25424e-03,9.15513e-02,9.58612e-02,3.27749e-02,6.55882e-02,1.99970e-01,1.45838e-01,-2.68154e-03,2.00426e-01,2.51277e-02,4.84673e-02,1.15704e-01,-4.26169e-02,4.78484e-02,2.59740e-04,-6.19439e-02,-1.60105e-02,-1.19382e-01,1.45309e-01,1.00944e-01,3.78566e-02,5.57239e-02,-9.52269e-02,3.12153e-02,-2.75459e-01,1.92399e-01,4.69439e-02,1.89282e-02,3.72708e-03,-1.14983e-01,3.11337e-02,-8.12563e-03,5.89399e-02,2.20977e-01,1.09245e-01,6.49539e-02,-1.21878e-01,1.31204e-01,3.33272e-01,-1.27899e-01,-1.46043e-01,1.53242e-02,-3.73957e-03,-3.37827e-01,6.75047e-02,
4.29275e-02,3.84925e-01,8.55788e-02,-2.47809e-02,4.17447e-01,-2.48878e-02,-4.76227e-02,3.15639e-01,-1.21022e-01,2.36666e-01,5.77129e-01,-3.73444e-01,3.85072e-01,-4.22370e-01,-3.98726e-01,5.62287e-01,7.52766e-01,-5.00749e-01,4.41713e-01,-1.35076e-01,-7.36525e-01,-5.16892e-01,5.59491e-01,-6.22946e-01,-1.01765e-02,-3.88673e-01,3.30401e-01,-2.02747e-02,3.20271e-02,5.25354e-01,4.04119e-01,1.09787e-01,7.46397e-02,6.58691e-01,3.09737e-02,2.43623e-01,-1.23516e-01,-4.41266e-02,-6.36315e-01,3.06942e-01,-5.63004e-01,-4.84045e-01,6.09056e-01,-2.98137e-02,3.14071e-01,4.40500e-01,-7.49343e-01,-7.22558e-01,-2.79465e-01,-4.27627e-02,-9.64699e-02,-1.32840e-02,-3.16562e-01,5.13624e-03,9.92788e-02,4.73192e-01,-5.47992e-01,7.25352e-01,1.44799e-01,-3.01435e-01,
-8.74266e-02,2.64750e-03,2.96483e-02,-7.80527e-02,1.87182e-01,-1.57964e-02,-1.14692e-01,1.96107e-01,-8.81660e-02,6.24834e-03,8.76756e-02,-2.56420e-01,3.51199e-01,-4.09070e-01,-1.64655e-01,6.63659e-02,2.31936e-01,-1.79739e-01,1.00827e-01,-9.15619e-02,-3.77420e-01,-3.76086e-01,-9.22413e-03,-3.85941e-01,1.91631e-02,-2.17246e-01,1.44334e-01,-1.18623e-02,6.13079e-03,1.65400e-01,2.24371e-01,2.58064e-03,6.51805e-02,2.52434e-01,1.12190e-02,-2.01380e-01,-5.65780e-02,-9.77992e-02,-2.71624e-01,3.79622e-01,-3.87333e-01,-2.98094e-01,2.85237e-01,-1.25050e-01,2.12739e-01,1.59061e-01,-4.23286e-01,-2.15583e-01,1.48023e-01,2.44440e-02,1.26459e-01,-4.56446e-02,-2.02404e-01,1.23273e-01,1.04689e-01,9.77626e-02,-1.41728e-01,8.83900e-02,1.00139e-01,-4.97608e-01,
-8.53393e-03,-7.10338e-02,3.78564e-01,-6.70686e-02,9.03585e-02,-5.34794e-02,2.22629e-02,5.04253e-02,-7.26994e-03,1.13808e-01,-9.67745e-02,-1.71525e-01,1.89887e-01,-9.20147e-02,1.00454e-01,6.68718e-02,1.31999e-01,3.28005e-02,8.06136e-03,-6.63743e-02,-5.32200e-02,-3.95132e-02,-1.31651e-02,-2.49296e-01,-7.79716e-02,3.71677e-02,-6.48619e-02,2.27173e-02,8.32793e-02,6.09850e-02,-9.74830e-02,4.40361e-02,7.73961e-02,1.13883e-01,-2.96958e-02,-3.92878e-01,9.50266e-02,9.70256e-02,1.63104e-01,2.11690e-01,-9.33515e-02,-1.32848e-01,1.62827e-01,6.91118e-02,4.99869e-02,6.70398e-02,-1.08000e-01,-4.43933e-02,-1.98405e-02,-9.03250e-02,1.62327e-02,3.96313e-02,-8.33924e-03,1.81878e-01,-3.55040e-02,-1.11166e-01,5.08199e-02,-1.27835e-01,-1.00907e-02,-1.23756e-01,
1.02978e-01,-2.02580e-01,2.85028e-01,-1.34369e-01,-2.06545e-01,6.08753e-02,-8.89581e-03,-1.66486e-01,6.18477e-02,-1.22934e-01,-1.87877e-01,1.65837e-01,-3.58799e-01,2.99282e-01,1.54526e-01,-2.35023e-01,-2.80095e-01,2.61368e-01,-1.23594e-01,-1.35600e-01,2.03688e-01,-1.02695e-02,-2.12827e-01,4.68480e-02,-2.47766e-02,1.19318e-01,-1.83573e-01,1.19236e-01,3.90374e-02,-1.88565e-01,-2.57045e-01,4.23317e-02,-2.38965e-02,-2.50459e-01,6.04345e-02,-1.01111e-01,-1.14730e-01,-6.99328e-02,2.97261e-01,-2.56917e-01,2.37078e-02,-1.02610e-02,-2.27393e-01,-4.83996e-02,-1.37578e-01,-3.56969e-01,4.54651e-02,8.92070e-02,1.51319e-01,-4.57745e-02,-4.37875e-02,9.28937e-02,3.06952e-01,2.94142e-01,-8.85633e-02,-1.28921e-01,3.54379e-01,-2.41468e-01,-3.26925e-01,3.07028e-01,
4.40637e-02,-1.91249e-01,2.71745e-01,-6.67858e-02,-2.78056e-01,5.36112e-02,3.12904e-02,-3.29534e-01,-1.26797e-01,-1.13708e-01,-1.58430e-01,-5.56553e-02,-3.64764e-01,1.94833e-01,1.74648e-01,-1.50064e-01,-5.25631e-03,1.46957e-01,-8.89743e-02,-1.21033e-01,-5.55889e-02,-4.29231e-02,-2.31622e-01,7.39149e-02,-9.89050e-02,-2.47059e-02,-1.10470e-01,-1.22982e-01,8.20237e-02,-9.37249e-02,-1.06408e-01,4.23843e-02,-5.49129e-02,-3.57572e-01,9.69353e-02,4.71358e-02,-5.80535e-02,4.90116e-02,1.31175e-01,-4.20035e-01,4.37075e-03,1.00051e-01,-6.10604e-01,3.92033e-02,-8.57329e-02,-4.49487e-01,1.05597e-01,2.30677e-01,1.99873e-01,-7.73979e-02,-5.16374e-02,-1.06952e-01,2.37410e-01,2.26493e-01,1.12218e-01,-2.19124e-01,2.04618e-01,-2.72159e-01,-1.88600e-01,2.08850e-01,
5.85785e-03,1.97783e-01,1.01794e-01,-6.87372e-02,2.14341e-01,-9.83618e-03,4.68039e-02,1.25519e-01,1.25434e-01,1.39163e-01,1.43800e-01,-5.95516e-01,2.60137e-01,-4.07660e-01,-3.04241e-02,1.93193e-01,4.68365e-01,-1.58655e-01,1.14272e-01,-1.02263e-01,-2.93316e-01,-4.37632e-01,1.58096e-01,-5.55394e-01,-1.16459e-01,-5.01639e-01,2.17419e-01,-5.66989e-02,-2.45988e-02,1.67472e-01,2.43627e-01,8.31120e-02,6.84390e-02,4.77857e-01,1.05087e-01,-5.23054e-02,-1.19632e-01,-5.26020e-02,-2.58830e-01,1.50729e-01,-4.36217e-01,-8.43403e-02,-3.61574e-03,-1.10602e-01,1.30203e-01,-1.32421e-01,-3.38687e-01,-3.25653e-01,3.91484e-01,-4.83819e-02,-6.98090e-02,-1.10273e-01,-2.00878e-01,3.64519e-01,-2.99320e-02,2.46807e-01,-2.22578e-01,4.90785e-01,3.89728e-01,-3.07479e-01,
9.03551e-02,-4.38672e-02,-4.36147e-02,1.69874e-03,1.37028e-03,2.86333e-02,-2.59377e-02,-1.05036e-01,-1.04041e-01,4.35417e-02,1.56903e-01,-3.40584e-01,1.27324e-01,-3.57650e-01,-4.58459e-03,5.49938e-02,4.92965e-01,4.79747e-02,1.61658e-01,9.19521e-03,-1.33038e-01,-3.22342e-01,-3.39284e-02,-2.11843e-01,-1.22154e-01,-2.96697e-01,-7.91395e-02,-1.97445e-02,-6.65013e-02,-1.35932e-03,1.52374e-01,7.01863e-02,9.64286e-02,4.98432e-01,-1.25817e-01,-2.75997e-01,1.65263e-02,-9.17912e-02,-2.81625e-02,2.13320e-01,-1.79527e-01,-2.23447e-01,-5.49571e-02,-1.10126e-01,-5.26604e-02,-4.04683e-02,-9.55983e-02,-2.87030e-01,2.71067e-01,-9.35267e-02,1.14405e-01,-7.06903e-02,-2.65161e-02,2.34627e-01,6.52355e-02,1.51673e-01,5.92349e-02,5.67238e-01,2.36778e-01,-3.76567e-01,
1.81942e-02,6.16819e-02,1.31854e-02,-6.82174e-02,3.11917e-01,-1.61259e-02,-9.39109e-03,2.53188e-01,-2.84741e-02,2.88658e-01,2.06659e-01,-4.07678e-01,3.11670e-01,-2.85784e-01,-2.86713e-01,1.82399e-01,6.04874e-01,-1.33336e-01,2.94169e-01,7.00954e-02,-1.86689e-01,-3.82389e-01,2.86825e-01,-5.97141e-01,-1.04101e-01,-4.41959e-01,7.51472e-02,5.59036e-02,8.34414e-02,2.88384e-01,3.51981e-01,-4.87563e-04,7.87942e-02,4.04765e-01,8.33771e-02,-8.83835e-02,4.32645e-02,-1.14849e-01,-2.63692e-01,4.16420e-01,-4.86146e-01,-2.40297e-01,1.90634e-01,-5.64901e-02,1.89524e-01,1.65633e-01,-4.62383e-01,-1.81305e-01,1.00905e-01,1.22796e-01,-1.13524e-01,5.30388e-02,-9.81832e-02,2.19322e-01,1.57646e-03,2.47816e-01,-6.36652e-02,4.06886e-01,2.26294e-01,-2.41566e-01,
-6.98200e-02,1.94505e-01,-1.38173e-01,-1.02241e-01,2.76989e-01,-7.53984e-02,4.73110e-02,2.52757e-01,8.02607e-02,3.02972e-01,2.17893e-01,-5.87399e-01,2.36715e-01,-1.60212e-01,-7.54151e-02,1.62300e-01,2.07518e-01,-9.76996e-02,2.31148e-01,6.78922e-02,-3.46384e-01,-4.15764e-01,1.26602e-01,-4.50908e-01,-1.06675e-01,-5.15451e-01,2.82744e-01,1.61756e-02,6.87555e-02,1.44672e-01,3.43716e-01,1.78569e-02,7.58062e-02,3.57251e-01,-5.81377e-02,-1.09722e-01,1.79145e-02,-4.70970e-02,-2.69220e-01,3.01300e-01,-4.24459e-01,-2.20193e-01,3.21475e-01,-2.87279e-02,1.22050e-01,2.80976e-01,-1.95173e-01,-2.61653e-01,-1.31377e-01,1.10775e-01,-7.15390e-03,-8.53554e-02,-1.16568e-01,3.29476e-01,-7.50324e-02,1.20682e-01,-2.20493e-01,3.33598e-01,6.42925e-02,-2.33275e-01,
-8.99820e-02,3.15424e-02,9.98565e-03,-5.71948e-02,1.25517e-01,-2.37753e-02,3.13309e-02,-6.68557e-02,-8.26400e-02,-7.97565e-02,-2.36928e-02,-1.92046e-01,-1.10854e-01,-1.89735e-01,-1.66758e-01,1.80416e-01,1.13437e-01,3.50191e-02,1.57281e-01,-9.25751e-03,-1.00081e-01,-1.66946e-01,-3.38020e-02,-2.73825e-01,-6.80785e-02,-1.32157e-01,1.35603e-02,-1.04077e-01,-5.62147e-02,9.47396e-02,5.81019e-02,-7.67172e-02,-9.21217e-02,-1.18424e-02,-1.25543e-01,-8.72556e-02,-1.24076e-01,7.44908e-02,-7.97840e-02,-4.77934e-02,-6.44349e-02,-6.31303e-02,1.32616e-02,9.64378e-02,-5.55569e-02,1.00605e-01,-1.66254e-01,-4.19135e-02,5.33834e-02,8.03405e-02,2.42959e-02,9.22485e-02,2.59832e-02,3.06459e-02,-5.26758e-02,4.46115e-02,5.25140e-02,-9.87678e-02,-1.34042e-01,-1.45006e-01,
2.65266e-02,2.58226e-02,-7.12515e-02,6.96385e-02,5.39448e-02,-2.94274e-02,-9.41180e-02,1.14985e-02,-1.14522e-01,-2.85147e-01,9.86652e-02,-4.02802e-02,-3.11053e-01,2.08317e-01,-9.92743e-02,-2.62747e-02,5.54931e-02,9.08064e-02,-7.63711e-02,-8.01887e-02,-1.05125e-02,5.18349e-02,5.61347e-02,6.79688e-02,-1.59912e-02,-1.18011e-02,1.42779e-01,1.21241e-01,-1.11042e-01,5.97011e-02,1.75783e-02,-3.38442e-02,-4.85088e-02,-3.01320e-02,-5.88057e-02,2.26865e-01,-8.30532e-02,5.09791e-02,1.25444e-05,-3.40929e-01,2.28725e-01,2.92475e-02,-1.26362e-01,4.05274e-03,-3.06983e-02,9.28419e-02,1.26340e-02,2.47422e-02,3.98547e-03,-3.50576e-02,-9.12892e-02,9.26736e-02,1.11258e-01,-1.29702e-01,-8.01617e-02,-1.03859e-01,-8.72702e-02,-1.21429e-01,-1.09356e-01,2.51964e-01,
1.04326e-01,-3.11317e-02,1.91210e-01,6.85610e-02,4.10910e-02,4.84383e-02,-6.22715e-02,-1.89745e-02,-1.20889e-01,-6.67730e-02,-1.01870e-01,-5.31184e-02,-3.16539e-01,2.95685e-01,1.47154e-01,-1.19374e-01,-1.89577e-01,4.82346e-02,-1.10420e-01,-1.71651e-02,2.21067e-01,6.42631e-02,-2.67102e-02,-6.36757e-02,4.68632e-02,1.65420e-01,-1.38361e-02,5.97795e-02,5.12948e-02,5.55000e-02,-7.56701e-02,7.37097e-02,5.95578e-02,-3.25889e-01,7.75572e-03,2.51693e-01,3.25854e-02,-4.82724e-02,1.53211e-01,-3.94829e-01,4.31023e-01,1.04357e-01,-8.08470e-02,-4.74259e-02,1.63763e-02,-1.11102e-01,2.21330e-01,-3.94317e-03,1.81504e-01,5.03245e-02,-1.76290e-02,9.00840e-02,1.64544e-01,2.82913e-02,1.04275e-01,-8.23028e-02,4.32079e-02,-3.68194e-01,-1.82352e-01,2.59698e-01,
-1.15513e-01,-4.81583e-02,6.22558e-02,1.01159e-01,-1.27750e-01,-9.63311e-02,1.55026e-02,-1.69113e-04,-9.30397e-03,-3.52555e-02,-1.11823e-01,-1.31662e-01,-2.70676e-01,2.93422e-02,-7.11456e-03,9.29364e-02,-2.43376e-01,-9.23168e-02,-4.23653e-02,-1.08018e-01,1.83135e-01,1.39961e-01,-4.14457e-02,-6.09843e-02,8.95838e-02,-1.01552e-01,9.50261e-03,-7.55993e-02,-8.52683e-03,-1.26585e-01,-1.49529e-02,-9.90802e-02,2.04768e-02,-3.78199e-01,-4.87542e-02,2.22080e-01,-1.29848e-01,-6.13398e-03,2.28848e-01,-1.67355e-01,1.48730e-01,1.74730e-01,-1.65665e-01,-5.38599e-02,-1.03915e-01,-1.84275e-01,1.75081e-01,6.80559e-02,3.50927e-01,-6.89115e-02,4.03816e-02,1.08383e-01,-6.80857e-03,2.13493e-01,3.80270e-02,-1.16925e-02,1.73207e-01,-2.29633e-01,-1.45520e-01,5.62955e-02,
-1.12166e-01,-6.60864e-02,3.22265e-01,5.23136e-02,-1.27977e-01,-7.23806e-02,-1.26468e-02,1.19058e-01,8.12816e-02,-3.73020e-02,1.59426e-02,-2.53525e-01,3.36913e-02,1.30093e-01,1.61143e-01,3.59775e-03,-2.33040e-01,1.02573e-01,2.20923e-02,1.04946e-01,-8.70570e-02,8.22272e-03,7.59857e-02,-1.84435e-01,-4.18051e-02,-2.11761e-01,3.84615e-02,3.15676e-02,6.06758e-02,-5.96112e-02,2.19270e-02,-1.40876e-02,-5.73173e-02,-2.85201e-01,8.68838e-02,2.47973e-02,6.26857e-02,-3.24634e-02,1.00417e-01,-1.39849e-01,-1.22188e-01,2.06414e-01,6.68549e-02,9.41248e-02,2.74195e-03,2.63740e-02,-2.27422e-02,-3.80827e-02,2.17197e-01,-1.09222e-01,-7.45154e-02,-6.12832e-02,1.32031e-01,4.53531e-01,-3.43064e-02,4.32194e-02,7.77861e-02,-2.80029e-01,-9.10285e-02,2.91377e-02,
-4.35249e-02,3.38471e-02,1.76929e-01,4.00499e-02,-5.10339e-02,5.03301e-02,-4.36140e-03,1.17773e-01,8.94165e-02,-1.92427e-01,-8.90619e-02,-2.12314e-01,4.97506e-02,6.17211e-02,-1.99936e-02,8.81577e-02,-3.59539e-01,6.86121e-02,-1.89453e-02,6.77576e-02,-7.40559e-02,-9.78178e-02,7.04161e-02,-1.13065e-01,-7.75409e-02,-1.72865e-01,1.05509e-01,-4.69845e-02,-8.08529e-02,-4.15713e-02,9.53971e-02,-7.89365e-02,-9.56581e-03,-3.88922e-01,6.19929e-02,1.18089e-01,9.13529e-03,-1.31327e-01,2.18492e-01,5.00054e-02,-2.29333e-01,2.01877e-01,1.60210e-01,-6.70112e-02,6.18004e-02,-1.10704e-02,-1.02861e-01,1.40279e-01,-3.06321e-02,-5.03675e-02,9.94451e-02,8.68531e-03,-2.85389e-02,3.41810e-01,4.67341e-02,-5.40428e-02,-1.04899e-01,-1.64052e-01,8.55453e-02,-2.92369e-03,
5.63711e-02,1.63035e-01,-1.40348e-01,-1.19567e-01,-3.88792e-02,1.00195e-01,1.09595e-01,1.27205e-01,-8.75475e-02,-7.83787e-02,-1.20978e-01,8.82459e-02,9.60961e-02,-2.13358e-01,-2.89166e-02,1.86375e-01,-3.38802e-01,3.25760e-02,1.45772e-01,1.15998e-01,-4.17296e-02,-2.88039e-03,1.05330e-01,-4.58889e-03,-7.83480e-02,-1.53165e-01,-1.88387e-03,-2.11749e-02,-8.99988e-02,2.02798e-01,6.65464e-02,-1.22519e-01,9.60107e-02,-3.20042e-01,3.19677e-02,1.85689e-01,-7.30247e-02,7.33745e-02,-6.45570e-02,-9.20933e-02,-3.36826e-03,-3.24176e-02,1.57862e-01,-6.55469e-02,1.57596e-01,1.76118e-01,4.64067e-02,4.11655e-02,8.46189e-03,4.80448e-02,-2.13372e-02,-1.11653e-01,-8.41236e-02,-1.61604e-02,4.62422e-02,1.92033e-01,-1.10333e-01,-2.51102e-01,-1.68947e-01,-2.25563e-01,
-1.00455e-01,4.27637e-02,-5.24085e-02,-8.28401e-02,1.34999e-01,-4.74554e-02,4.44899e-02,8.42713e-02,9.19703e-02,-1.74094e-01,-1.32220e-03,2.63577e-02,-1.55178e-01,-9.98261e-02,-8.82687e-02,1.05431e-01,-1.50971e-01,-2.02429e-03,1.74654e-01,-8.94879e-02,-2.88652e-02,7.37201e-02,1.65366e-01,1.09968e-01,1.22005e-01,5.52863e-02,1.09474e-01,-7.58743e-02,2.04964e-02,6.02708e-02,1.43515e-01,-1.67051e-02,1.03412e-01,-1.43432e-01,-8.38456e-02,1.75529e-01,2.11029e-02,-9.39468e-02,-3.33214e-01,-1.74978e-01,1.77819e-01,-1.48915e-01,-1.36818e-01,9.58040e-02,1.69596e-01,-7.92652e-02,-1.42328e-01,-1.10104e-01,-1.34059e-02,6.43693e-02,-5.51956e-02,-5.51164e-02,-1.08167e-01,-2.07523e-01,-5.63780e-02,-1.90789e-02,-1.14797e-01,-1.52429e-01,4.35063e-02,-5.69187e-03,
6.55288e-02,1.15391e-01,3.76419e-02,7.36569e-03,-8.32909e-02,1.11544e-01,-1.11393e-01,2.64959e-02,4.44238e-02,-3.80688e-02,1.08192e-02,8.65940e-03,-1.40201e-01,3.57273e-02,9.89214e-02,-6.06166e-02,-5.51401e-02,-7.63348e-02,1.19770e-02,2.66772e-02,-5.24812e-02,-8.21156e-02,-3.31253e-02,-1.04687e-02,-3.12386e-02,-9.21373e-02,-2.08466e-02,1.19288e-01,-1.20732e-01,1.28381e-01,1.31157e-01,3.26486e-02,-7.66159e-02,-1.07915e-01,-1.02675e-01,1.33104e-01,5.36160e-03,-1.27762e-01,-1.39059e-01,-7.60314e-02,-6.57895e-02,-2.70605e-02,-1.89511e-01,8.46078e-02,1.32272e-01,-1.60950e-01,-2.94486e-02,-8.66626e-02,-1.46074e-01,-8.67182e-02,-6.16971e-02,-5.68619e-02,-1.45463e-01,-6.43701e-02,-1.28781e-01,1.42218e-01,2.37529e-02,-7.35210e-02,-2.20976e-02,-1.23339e-01,
-4.57135e-02,1.54648e-02,-6.10751e-03,1.09010e-01,1.29194e-01,-1.12619e-01,1.29882e-02,3.75885e-02,-1.19897e-01,1.12457e-01,7.28791e-02,-1.14562e-02,7.50944e-02,-4.77187e-02,-2.01160e-02,8.21109e-02,-9.02217e-02,-4.87347e-02,1.78448e-01,3.29281e-02,-1.72627e-01,-8.83072e-02,1.77169e-01,-6.03522e-02,-1.22530e-01,2.74597e-02,1.53708e-01,4.87203e-02,1.36083e-02,-4.73102e-03,1.00334e-01,8.78966e-02,-5.17307e-02,-1.15180e-01,7.07729e-02,2.08367e-01,-9.77953e-02,8.27881e-02,-1.57087e-01,1.77991e-01,-2.34959e-01,-1.40850e-01,3.64500e-02,-1.01669e-01,2.50537e-02,1.46416e-01,-1.14257e-01,-6.64312e-02,4.51262e-02,-9.61490e-02,-6.63127e-03,4.34406e-02,9.02856e-02,1.87419e-01,1.24506e-01,-4.47426e-02,-1.51815e-02,-1.52206e-01,-5.85766e-02,-9.50033e-02,
4.35748e-02,1.09103e-01,-4.48902e-02,-6.34820e-02,-1.66243e-02,1.09707e-02,9.52556e-02,1.18882e-01,-1.14310e-01,1.47705e-01,-8.54375e-04,1.03613e-01,7.78960e-02,-7.82801e-02,-1.77646e-01,1.66103e-01,-1.92120e-01,-1.36013e-01,3.59722e-03,-9.06260e-02,-1.29339e-01,4.65891e-02,7.34538e-02,7.01156e-02,1.20759e-02,7.62313e-02,4.17054e-02,-8.31839e-02,5.75062e-02,2.10761e-01,1.10225e-01,-7.08327e-02,-2.22962e-03,-1.29969e-01,-6.50678e-02,1.59167e-01,6.39107e-02,6.79331e-02,-1.55485e-01,1.88209e-01,-1.51166e-01,-2.16214e-01,1.93541e-01,-3.20369e-02,-2.50159e-03,1.72688e-01,-1.25523e-01,-7.50236e-02,-2.07463e-01,-4.81143e-02,9.49805e-02,-6.65284e-02,-1.68390e-01,-2.45043e-01,-2.12927e-02,4.31126e-02,4.14163e-02,-1.29325e-01,1.44468e-01,2.37945e-02,
1.45732e-02,1.45892e-01,-1.53913e-01,-6.75970e-02,-3.62511e-02,-5.54923e-03,-1.15622e-01,1.14662e-01,-1.18631e-01,2.85727e-01,1.61421e-01,1.85515e-01,1.64221e-01,-5.05526e-02,-7.92368e-02,9.78204e-03,-7.93268e-02,-3.65768e-02,1.55933e-02,-4.79617e-02,-2.01399e-02,-1.16876e-01,1.03437e-01,1.89703e-01,-7.51328e-02,1.82761e-01,3.31833e-02,-5.45749e-02,-5.71122e-02,1.20756e-01,2.67353e-02,-1.17783e-01,-1.27955e-01,-2.14807e-01,9.60526e-03,4.04030e-02,1.08646e-01,-1.11007e-01,-4.46387e-02,1.07328e-02,7.96249e-02,-4.25861e-02,2.59252e-01,3.67038e-02,1.50781e-01,9.68943e-02,-1.07254e-01,-1.59674e-01,-1.55922e-01,-1.35923e-01,-6.49617e-02,-3.12325e-03,-2.09449e-02,-4.42958e-01,3.62846e-02,1.98751e-01,-1.68875e-01,-8.45678e-02,3.14229e-02,1.38578e-02,
-9.54544e-02,-3.84063e-02,-1.35771e-02,-7.35606e-02,-4.35011e-02,-9.88349e-02,4.57295e-02,-9.49681e-02,-2.85542e-02,-4.55075e-02,-1.62080e-01,1.81911e-01,8.37990e-02,1.16370e-01,2.20909e-02,-1.51058e-01,-1.24918e-01,-3.62118e-02,-2.47540e-02,2.27383e-02,1.01138e-02,1.86687e-01,4.93470e-02,1.64936e-01,-7.59715e-02,1.18595e-01,4.76234e-02,-7.95368e-02,-8.81270e-02,4.99746e-02,4.71732e-02,-7.22612e-02,2.12406e-02,-3.70286e-03,3.72734e-02,-1.84067e-01,-1.20433e-01,4.85832e-02,2.03833e-01,1.23839e-01,2.18519e-01,2.25921e-01,-3.80162e-02,-5.88134e-02,-5.31551e-02,8.80921e-02,1.23585e-01,-1.55540e-02,2.12982e-01,-2.82815e-02,-4.74156e-02,3.01825e-02,1.20016e-01,1.56041e-04,9.71901e-02,-5.18044e-02,7.23867e-02,8.60541e-02,7.35759e-02,1.38495e-01,
-5.89823e-02,1.64250e-02,3.18390e-02,-3.33157e-03,5.55326e-02,9.02864e-02,-4.46630e-02,4.26167e-02,3.76322e-02,-1.10492e-01,8.09477e-02,1.03303e-01,1.42242e-01,1.81672e-01,2.40186e-01,4.01878e-02,1.26128e-01,1.41083e-01,-1.20255e-01,-8.36156e-02,2.05830e-01,2.36176e-01,-1.32290e-01,1.53025e-01,-8.13969e-05,1.17999e-01,-1.73497e-02,-3.06997e-02,6.86403e-02,-5.14946e-02,1.25810e-02,-4.86270e-02,4.64757e-02,1.60351e-01,-7.61560e-02,-4.29080e-01,-1.00500e-01,-1.56443e-03,-7.29933e-02,2.01906e-01,3.00903e-01,2.47946e-01,-1.19716e-01,-1.07162e-01,1.65570e-02,4.82987e-02,1.41844e-01,9.31569e-02,3.07753e-01,-6.51060e-02,-1.17825e-01,3.47724e-02,-2.86513e-03,8.29988e-03,2.84264e-03,-1.64041e-01,8.22488e-02,2.19073e-01,1.69290e-01,2.99010e-02,
-4.78601e-02,2.58748e-02,1.23509e-01,3.77775e-02,1.11003e-01,-4.73911e-02,-1.01510e-01,-9.60401e-02,-1.04049e-01,7.53297e-02,1.29882e-01,1.19797e-01,1.50765e-01,-7.74188e-02,1.41189e-01,-1.39056e-01,2.16135e-01,6.55433e-02,-3.09419e-03,-9.19038e-02,-4.98068e-02,1.78571e-01,4.92477e-02,7.76470e-02,-1.16177e-01,1.48820e-01,-1.21331e-01,-1.13817e-02,-3.89336e-02,3.52411e-02,-1.19693e-01,3.77755e-02,-7.46285e-02,3.12002e-01,-1.65856e-02,-4.97772e-01,-5.24830e-02,7.94670e-02,-1.23791e-01,2.20692e-01,2.65967e-01,1.22395e-02,1.73416e-01,8.87738e-02,7.99789e-02,1.25907e-01,1.78158e-01,-2.72878e-02,1.34678e-01,-4.99043e-02,4.32508e-02,-1.09759e-01,1.31463e-01,-2.58780e-02,-5.73534e-02,-1.55358e-02,1.79822e-02,2.40083e-01,1.63903e-01,-5.72188e-02,
-3.79762e-02,5.25511e-02,2.35702e-02,1.14290e-01,1.69088e-01,-3.33107e-02,2.17429e-02,1.78014e-02,-1.10768e-01,1.12070e-01,1.11043e-01,-1.16845e-01,3.27947e-01,2.74263e-02,-1.31052e-01,8.55401e-02,9.87796e-02,4.41734e-02,6.67147e-02,-1.28203e-01,6.89231e-02,-8.29802e-02,1.45631e-01,6.44588e-02,-1.21170e-01,-7.74057e-02,1.46624e-01,1.14534e-01,-1.07352e-01,-1.95583e-02,1.07233e-01,-1.05791e-01,-1.08243e-01,2.90267e-01,3.80033e-02,-3.53126e-01,8.62477e-02,-6.52321e-02,4.83679e-02,2.76933e-01,2.53367e-02,1.03885e-01,2.31508e-01,-1.09888e-01,4.75810e-02,-2.57787e-02,1.13579e-01,1.96066e-02,1.20144e-01,2.93414e-02,6.41646e-02,-1.16074e-01,-9.64249e-02,6.32909e-02,-3.33135e-02,-4.26649e-02,-5.81919e-02,2.53019e-01,5.99611e-02,7.74089e-02,
-1.18164e-01,1.59247e-01,5.62179e-03,-1.85758e-02,9.64957e-02,9.97588e-02,5.62471e-02,1.30456e-02,2.25230e-02,-2.48445e-02,1.67271e-01,-5.64034e-02,1.81518e-01,2.17802e-01,4.76788e-02,1.70510e-02,3.11829e-02,1.64540e-02,2.40273e-02,-5.82621e-02,1.71789e-01,-3.51565e-02,4.44347e-02,-1.55624e-01,-2.49549e-02,6.31344e-02,-1.61489e-02,-5.21702e-02,1.89163e-02,6.09361e-02,1.59586e-01,-9.98899e-02,-1.45326e-02,1.59873e-01,-8.38574e-02,-2.60667e-01,-1.40917e-03,8.68432e-02,4.78252e-02,3.19339e-01,6.20944e-04,8.18684e-03,1.36442e-01,-6.21870e-02,9.28432e-03,-8.85849e-03,-2.71396e-02,1.20963e-01,-1.13031e-01,3.98102e-02,7.92188e-02,1.20943e-02,1.46764e-01,2.58261e-02,-1.06465e-01,5.54753e-02,5.66328e-02,-7.14785e-02,1.77291e-01,1.49659e-01,
-1.34691e-02,3.17181e-02,1.80501e-01,2.72800e-02,3.27727e-02,-1.25910e-01,-8.42965e-02,3.33526e-02,-9.66360e-02,8.25580e-02,5.04864e-02,-1.93882e-01,1.19168e-01,2.05512e-01,1.18357e-01,1.80599e-01,1.66067e-01,-8.82983e-03,1.55572e-01,1.18701e-01,8.82118e-02,-2.76671e-02,-1.03485e-02,-1.64753e-01,1.16515e-01,-2.33613e-01,7.26352e-02,-1.01993e-01,1.19576e-01,9.76325e-02,1.34269e-01,1.21396e-01,3.66144e-02,1.01485e-01,-1.33878e-01,-1.44753e-01,2.95321e-02,-1.01387e-01,2.13961e-01,7.24448e-02,2.63435e-02,-3.16351e-02,-1.31159e-02,-1.15814e-01,6.52359e-02,1.66600e-01,1.04017e-01,1.35836e-01,-3.21789e-02,-8.68708e-02,-7.05701e-02,-4.92519e-02,-1.35803e-01,1.31088e-01,-4.28147e-03,1.05806e-01,5.91170e-02,1.85913e-01,2.25193e-01,1.53882e-01,
-6.33232e-02,-2.71352e-01,1.78529e-01,5.34484e-02,-1.21712e-01,-3.88922e-02,3.12939e-02,-2.08868e-01,-3.67890e-02,1.42837e-01,-2.99879e-01,3.67713e-02,2.69021e-02,2.93683e-01,2.22053e-01,-2.00938e-01,1.70903e-01,2.62391e-01,-1.55034e-01,-1.28522e-01,3.91424e-01,9.78300e-02,-2.67337e-01,5.26187e-02,-1.24438e-01,9.44999e-02,-2.08733e-01,-6.20783e-02,-4.45964e-02,-1.87061e-01,-2.53592e-01,4.39960e-02,7.67232e-02,7.11045e-03,1.02253e-01,-3.21083e-01,-9.39965e-02,-2.95944e-02,2.93501e-01,4.81493e-02,9.76260e-02,3.54008e-02,-8.61971e-02,5.76700e-02,-2.59803e-01,-6.32774e-02,3.71524e-01,4.60460e-01,2.76916e-01,7.20910e-04,5.25027e-02,-9.05036e-02,1.69089e-01,3.31922e-01,-3.69047e-02,-1.18008e-01,3.62291e-01,-9.23837e-02,-3.77755e-02,2.93576e-01,
1.00645e-02,-1.29697e-01,5.97746e-03,-8.79711e-02,-8.12231e-02,9.24224e-02,6.76822e-02,6.05029e-02,1.07124e-01,2.65478e-01,-1.04459e-02,1.41702e-02,-1.69758e-02,-9.12658e-03,2.80656e-02,-9.34438e-02,8.18841e-02,1.65576e-01,-1.21271e-01,-3.81348e-02,2.06075e-01,1.08818e-01,5.58954e-03,1.66763e-01,1.77816e-02,-1.45990e-02,7.56096e-02,-1.06389e-01,8.38192e-02,-7.46106e-02,-1.19754e-01,-3.52447e-02,-1.01641e-01,4.00027e-04,3.57198e-02,-2.54067e-02,-3.75412e-02,5.32084e-02,7.83599e-02,6.77432e-02,-1.17003e-01,5.14840e-02,-1.07384e-01,5.30858e-02,-3.94205e-02,1.19951e-01,1.07805e-01,1.88503e-01,-3.32749e-01,7.20433e-02,-6.46853e-02,-4.98286e-02,-5.23653e-02,-1.70510e-01,-1.06230e-01,-1.03201e-02,3.66913e-02,7.95677e-02,5.10775e-02,-8.30077e-02,
-2.38564e-02,-5.84204e-02,4.61895e-02,3.09020e-02,1.06578e-01,-9.22496e-02,2.30364e-02,-1.37732e-02,8.69215e-02,1.00930e-01,-9.84293e-02,9.64480e-02,-2.35780e-01,8.20225e-03,2.61813e-02,1.17031e-01,1.81749e-01,-9.32681e-02,3.27983e-02,-6.62512e-02,-7.80868e-02,8.93330e-02,-4.67119e-02,6.93445e-02,-4.33363e-03,7.32962e-02,4.10623e-03,1.21582e-01,7.65881e-02,7.23551e-02,-4.09379e-02,-1.05589e-01,-8.16964e-02,1.55766e-02,9.95662e-02,2.62044e-01,-1.95654e-02,-1.26548e-01,6.49848e-02,-1.55804e-01,1.05532e-01,1.41837e-01,-9.65671e-02,4.07495e-02,6.67321e-02,-3.31155e-02,-3.10105e-02,2.14249e-02,-3.37542e-01,-2.17241e-02,9.11989e-02,-7.57677e-02,-7.79584e-02,-2.29251e-01,-7.18119e-02,-8.95407e-02,-5.44105e-02,-6.72455e-03,2.55627e-02,1.79464e-02,
9.79441e-02,-1.05923e-01,1.84752e-01,-2.39763e-02,-1.72490e-01,-7.09914e-02,-1.03598e-01,-2.76225e-03,7.63246e-03,-1.75620e-01,-1.51033e-01,8.16545e-02,-1.66707e-01,9.69016e-02,2.19170e-01,-1.35658e-01,1.81927e-01,-6.01049e-02,-1.52124e-02,1.12351e-01,9.50730e-02,1.70569e-01,3.57406e-02,1.76672e-01,7.39997e-02,2.01052e-01,-1.14388e-01,9.08298e-02,-2.48401e-02,-1.37705e-01,-7.10614e-02,-1.23485e-02,1.00215e-01,1.11920e-01,-1.30172e-01,2.69938e-01,-6.93208e-02,-5.31475e-02,-7.63747e-02,-4.09003e-01,3.06730e-01,-4.29344e-02,-1.12326e-01,1.17715e-02,-7.03418e-02,-1.41887e-02,5.84541e-02,1.44504e-01,-1.60461e-01,-5.78813e-02,7.38353e-02,9.93884e-02,1.73140e-01,-3.79759e-02,4.20703e-03,6.25612e-02,7.67021e-02,2.02168e-01,-5.17672e-02,9.57749e-02,
5.52818e-02,9.80611e-02,-6.74546e-02,-3.98727e-02,-7.31497e-02,-1.04221e-01,-3.61192e-02,1.19504e-01,-5.55049e-02,-2.76002e-01,-4.86276e-02,1.93755e-01,-1.82737e-01,1.72212e-01,2.99642e-02,-8.77677e-02,-6.85497e-02,1.10190e-02,-8.13048e-02,-1.35190e-01,1.90533e-01,1.85125e-01,2.56021e-02,2.18793e-01,1.05554e-01,8.69366e-02,-7.61468e-02,-3.97711e-02,-6.39930e-02,1.39367e-01,8.55822e-03,-6.98479e-02,-8.45725e-02,9.29286e-02,-8.66150e-03,3.15886e-01,2.00005e-02,6.60572e-02,5.54690e-02,-1.45972e-01,1.92814e-01,-7.58163e-02,3.79765e-02,-1.32011e-01,-2.87886e-02,-3.26092e-02,2.03794e-01,-8.13943e-02,-2.69434e-01,8.42007e-02,-6.96095e-02,8.02894e-02,1.24247e-01,-7.69342e-02,6.44622e-02,6.99717e-03,1.39492e-01,2.34034e-01,9.46682e-02,2.07290e-01,
-1.38229e-02,-9.45485e-02,3.96464e-01,4.33847e-03,-8.95882e-02,1.24415e-02,-5.14632e-02,-1.46192e-01,6.43998e-02,-4.45204e-01,-1.81120e-01,2.63287e-01,-7.66917e-02,2.18655e-01,3.14066e-01,-2.33200e-01,-2.40320e-01,1.83286e-01,-2.07803e-01,-1.92715e-02,2.80267e-01,1.92442e-01,-1.80906e-01,2.02056e-01,-4.24378e-02,2.61991e-01,-1.11923e-01,-1.96873e-02,7.04208e-02,-1.48277e-01,-2.20716e-01,-5.08363e-02,-2.68430e-02,2.23991e-01,-4.98282e-02,4.28215e-02,-1.24913e-02,3.52978e-02,8.09521e-02,-2.40271e-01,1.82358e-01,3.25336e-01,-1.55000e-01,-6.89825e-02,-2.12914e-01,-3.00203e-01,2.30366e-01,2.23718e-01,2.64104e-01,5.62546e-02,-6.27357e-02,-1.05714e-01,2.39514e-01,1.89412e-01,7.43305e-02,-1.09329e-01,2.26977e-01,1.31593e-01,-5.44735e-02,4.52905e-01,
7.93140e-02,-2.68550e-01,2.81676e-01,5.68641e-02,-2.33302e-01,-6.06757e-02,1.20631e-02,-2.30706e-01,2.34716e-02,-4.04262e-01,-3.37076e-02,2.78310e-01,-1.23155e-01,1.45754e-01,3.45943e-01,-2.30566e-01,-1.00025e-01,2.71362e-01,-2.91978e-01,-1.64561e-02,2.24117e-01,2.16709e-01,-1.09638e-01,3.22112e-01,-1.18617e-01,2.19690e-01,-2.24508e-01,1.24883e-01,-1.23480e-01,-2.68910e-01,-2.07414e-01,-4.56648e-02,-6.70225e-02,2.48114e-01,1.53530e-03,-1.15843e-01,8.11185e-02,-1.03470e-01,3.29906e-01,4.50829e-02,1.68562e-01,3.02858e-01,-3.62477e-01,-1.76759e-02,-2.46729e-01,-2.57017e-01,3.55213e-01,3.15618e-01,2.04416e-01,-4.71452e-02,8.13684e-02,-6.53999e-02,2.78306e-01,3.17552e-01,-1.04074e-01,-9.44548e-02,2.47913e-01,5.44879e-02,-1.88499e-02,2.11844e-01,
-5.59946e-02,-5.39277e-02,-2.17626e-01,1.20893e-02,-3.50728e-02,6.90923e-02,-8.49193e-02,1.03574e-01,3.31890e-02,-3.79344e-01,1.00687e-01,5.92089e-02,-1.23324e-01,-2.61501e-01,1.53823e-02,8.04476e-02,-2.67194e-01,1.36310e-01,1.17848e-01,-9.70271e-02,5.36835e-02,7.95430e-02,8.19229e-02,1.63133e-01,1.02471e-01,1.39217e-01,-4.21995e-02,-1.06108e-01,-7.56976e-02,-1.49656e-02,-8.25700e-02,-4.20028e-02,-2.55471e-02,3.40314e-02,-1.27842e-01,8.78284e-02,3.63849e-04,-7.00030e-02,-1.71112e-02,-2.44773e-02,-1.35917e-01,-1.41649e-01,-2.08071e-01,-2.63209e-02,-3.23780e-03,-1.64891e-01,1.02295e-01,-1.07348e-01,-2.18727e-01,7.69468e-02,-5.28313e-02,-8.93792e-02,8.48847e-02,-2.44103e-01,2.71116e-02,-9.42907e-02,-6.97443e-03,-1.46266e-02,-1.51730e-01,-2.69560e-01,
-1.24504e-01,1.77271e-01,-3.23015e-01,-2.57367e-04,-5.98368e-02,-6.69084e-02,-1.16997e-01,9.42419e-02,2.22720e-03,-1.53687e-01,1.34374e-01,1.52478e-01,2.09601e-02,-5.47973e-01,7.35425e-02,1.59690e-01,-7.96768e-02,4.97882e-03,1.82509e-01,2.05588e-02,-4.84133e-03,-1.12269e-01,1.43755e-01,-1.21872e-02,-4.20243e-02,9.45073e-02,3.99706e-02,-6.46728e-02,1.02152e-01,2.17545e-02,1.39587e-01,5.94827e-02,-1.09518e-01,-7.94953e-02,7.81402e-02,9.22737e-02,-1.39710e-01,7.69307e-03,-3.73801e-02,-1.25756e-01,-2.63792e-01,-3.08897e-01,1.38905e-02,1.21794e-01,4.80575e-02,-6.14788e-02,-5.82263e-02,4.22943e-02,-1.91117e-01,-4.55543e-02,9.56159e-02,-1.15254e-02,1.03346e-01,-2.94009e-01,5.32066e-03,-5.56427e-02,-8.51941e-02,-1.39139e-01,3.27497e-02,-5.08768e-01,
1.02517e-01,-2.06117e-01,-1.42756e-01,1.04614e-01,7.32840e-03,1.20405e-01,-2.31312e-02,-1.22153e-01,-1.02850e-01,3.26255e-02,-1.59467e-01,1.72408e-01,-1.74704e-01,-2.28771e-01,1.31515e-01,-2.08332e-02,-2.79983e-02,1.53296e-01,-2.16704e-01,7.11602e-02,2.49516e-01,1.92017e-01,-2.41801e-01,1.10534e-01,-4.03210e-02,1.81335e-01,-1.65758e-01,1.02265e-01,9.85303e-02,-2.14435e-01,-2.18795e-01,1.15948e-01,1.52397e-02,-2.10639e-01,4.42156e-02,-1.50482e-01,3.75330e-02,-1.09666e-01,2.26111e-01,-1.08860e-01,-2.05878e-01,-1.40827e-01,-8.42797e-02,-9.82487e-02,-2.99841e-02,-2.08439e-01,1.26238e-01,2.38090e-01,-1.17600e-01,2.61683e-02,-1.26631e-01,7.52445e-02,9.66129e-02,3.04502e-01,-1.10327e-01,-5.38612e-02,9.00384e-02,-1.69735e-01,1.66023e-02,-1.84820e-01,
-6.13086e-02,-7.25775e-02,-1.73757e-01,-8.00469e-02,-2.59855e-03,1.45925e-02,-1.77406e-02,-5.16869e-03,1.27239e-01,2.13740e-01,-1.55913e-02,-9.70928e-02,7.00546e-02,-3.28854e-01,1.45687e-02,-3.03083e-02,-1.16380e-01,8.52892e-02,-7.20160e-02,-1.33881e-01,4.62124e-02,-9.92930e-03,-9.57812e-02,-1.44825e-01,-5.28088e-02,-1.46184e-01,-5.75740e-02,1.18858e-01,1.59454e-04,-6.04325e-02,-2.32541e-02,-6.05819e-03,1.08102e-02,-1.65184e-01,6.40750e-02,-1.71643e-01,-9.85709e-02,6.42013e-02,-9.84613e-02,-5.03639e-02,-3.63625e-01,-1.95756e-01,2.05812e-01,1.01570e-01,-2.05915e-02,3.30193e-02,-1.03905e-01,-6.86579e-02,-1.10851e-01,-6.77802e-02,-2.91331e-02,-8.29369e-02,8.48517e-02,2.88075e-01,7.94616e-02,1.33144e-02,1.70533e-01,-1.72307e-03,-5.14661e-02,-2.92672e-01,
5.44566e-02,8.40633e-02,-3.67797e-01,-1.31667e-01,9.83661e-02,-8.59031e-02,9.93432e-02,1.32083e-01,-8.36122e-02,2.36215e-01,-2.31502e-02,1.34218e-01,-1.18659e-01,-8.18577e-02,-5.22843e-02,7.90579e-02,-2.46711e-01,3.72013e-02,1.79335e-01,-1.24579e-01,6.00289e-02,7.22868e-02,9.49490e-02,1.25822e-01,1.24553e-02,1.73665e-01,1.89730e-01,-5.37917e-03,-9.00828e-02,1.47528e-02,1.41363e-01,-9.54521e-02,-4.24699e-02,-3.70345e-01,1.53626e-02,3.86583e-01,1.19717e-01,-3.30245e-02,1.05314e-01,-2.24585e-01,-2.78401e-01,3.05123e-02,2.25540e-01,-6.14326e-02,-1.50987e-02,2.13936e-01,1.04516e-01,-6.08633e-03,-4.29506e-01,7.98905e-03,5.18074e-02,-1.09863e-01,-3.80109e-02,-1.16088e-01,-1.04543e-02,1.36872e-01,9.91881e-02,-3.14644e-01,-1.83807e-01,-2.63598e-01,
9.27707e-02,4.22912e-02,-4.51864e-01,-2.71890e-02,1.78579e-01,-1.28889e-01,1.10505e-01,-3.87780e-03,9.71398e-02,5.79873e-02,1.64028e-01,4.84421e-02,-9.18251e-03,-2.30928e-01,-2.09164e-01,1.89754e-01,-1.37875e-01,-1.66896e-03,2.41181e-01,2.98417e-02,-1.76241e-01,1.40192e-02,1.67559e-01,8.06996e-03,9.56996e-02,1.22479e-01,6.71695e-02,-6.88631e-02,4.73844e-03,7.32800e-02,1.61623e-01,-5.11726e-02,-9.18777e-02,-4.86738e-02,-4.69030e-02,2.78137e-01,-7.98793e-02,4.01483e-02,-3.16439e-02,-2.66823e-02,-2.65282e-01,-2.24114e-01,2.36574e-01,-4.57781e-02,1.85229e-01,1.97154e-01,-1.80038e-01,-1.70924e-01,-5.47295e-01,-6.53016e-02,7.49813e-02,1.18475e-01,-2.06024e-01,-5.94068e-01,-9.93182e-02,7.54900e-02,-1.07759e-01,-1.36435e-01,-2.00440e-01,-2.51438e-01,
-4.75833e-03,1.15362e-01,-2.40415e-01,2.40480e-02,3.61475e-01,1.01726e-01,-8.44498e-02,6.14739e-02,-6.25774e-02,-1.23791e-01,1.98804e-01,-1.11841e-02,2.23856e-01,-1.18133e-01,-1.57786e-01,2.35095e-01,5.58728e-02,-6.33929e-02,7.82337e-02,5.24601e-02,-1.29969e-01,-2.73848e-01,3.16462e-01,-1.52671e-01,-3.70138e-02,4.25027e-02,2.73895e-01,-1.10950e-01,-1.20840e-01,3.16732e-01,2.30274e-01,-9.17628e-02,2.59290e-02,1.98123e-01,3.43549e-02,-7.95806e-02,-8.92309e-02,4.71480e-02,-1.57332e-01,2.33224e-01,-3.55809e-01,-2.45862e-01,3.47365e-01,1.01530e-01,2.86695e-01,2.87970e-01,-1.05203e-01,-1.18134e-01,-3.00826e-01,-4.33834e-02,-9.27373e-03,9.25265e-02,-8.03422e-02,-4.86286e-01,-1.08990e-01,2.88787e-01,-8.47892e-02,-1.98517e-02,4.03071e-02,-6.53113e-02,
1.57474e-02,3.01035e-01,-4.59932e-01,6.57712e-02,3.62343e-01,7.91285e-04,-8.94909e-02,1.77635e-01,6.96819e-03,-1.63964e-02,3.35993e-01,-1.51076e-01,4.35228e-01,-4.76614e-01,-3.05426e-01,3.43010e-01,3.81621e-01,-1.89434e-01,4.16103e-01,4.17907e-03,-3.03465e-01,-2.15133e-01,1.87226e-01,-2.32099e-01,-4.88473e-02,-1.89292e-01,3.18727e-01,6.28023e-02,-3.79761e-02,2.21634e-01,2.68445e-01,-1.13782e-01,8.17518e-02,5.32838e-01,2.12287e-04,-2.48514e-01,-6.00663e-02,1.16193e-01,-1.38051e-01,2.66530e-01,-4.05659e-01,-4.12721e-01,2.61123e-01,-1.14287e-01,3.31414e-01,2.09100e-01,-3.31175e-01,-3.24469e-01,-1.74487e-01,4.32719e-02,7.58942e-02,-9.09039e-02,-1.18348e-01,-2.00067e-01,-1.91521e-02,3.01152e-01,-3.99008e-01,3.25759e-01,2.55221e-01,-4.53290e-01,
-1.14384e-02,1.94555e-01,-2.32113e-01,-5.38483e-02,2.48435e-01,-5.61313e-02,-7.12603e-02,8.31019e-02,5.81078e-02,1.98732e-01,9.60248e-02,-8.86050e-02,3.00348e-01,-1.97386e-01,-1.23965e-01,5.87408e-02,5.30744e-01,-1.06686e-02,2.47781e-01,-3.80213e-03,-8.50739e-02,-7.85732e-02,9.61111e-02,9.58219e-03,5.32884e-02,-1.39666e-01,1.43368e-01,1.06745e-01,-5.54145e-02,2.03097e-01,2.49820e-01,-8.76148e-02,-1.23237e-01,3.42957e-01,-5.31209e-02,-1.83815e-01,-1.19566e-01,-8.55104e-02,-8.94972e-02,3.46692e-01,-1.52040e-01,-1.26007e-01,1.02413e-01,9.85586e-02,5.75438e-02,5.61067e-02,-5.26508e-02,-1.73484e-01,-3.84683e-02,-1.02311e-01,-3.69818e-02,-4.84982e-02,-1.32845e-01,1.81754e-02,1.14410e-01,7.80466e-02,-2.24283e-01,3.61053e-01,1.32552e-01,-4.01187e-01,
2.00224e-02,1.40021e-01,-2.21210e-01,-1.02147e-01,4.78961e-02,-1.17678e-01,1.23378e-02,6.97066e-03,-7.15174e-02,2.50046e-01,1.24822e-02,3.97959e-02,1.61677e-01,-1.63846e-01,-1.19113e-01,2.54668e-02,1.51812e-01,5.52258e-02,6.58466e-02,-1.16583e-01,9.96523e-02,8.63588e-02,4.81378e-02,3.19612e-02,5.85941e-02,-2.21401e-02,5.92009e-03,-1.08884e-01,-9.11101e-03,1.11753e-01,9.01848e-02,9.83784e-02,-1.20653e-01,1.59291e-01,4.38181e-02,-2.88934e-01,-1.20021e-01,1.18203e-01,2.58440e-02,2.03639e-01,-1.17144e-01,-2.74017e-04,-1.11021e-01,-8.75018e-02,1.98776e-02,8.44719e-02,1.61446e-02,1.20763e-01,4.86826e-02,-1.18575e-01,-8.49331e-02,-9.97408e-02,1.16020e-01,2.72309e-01,-1.19693e-01,1.26004e-01,-3.85427e-03,2.99243e-01,3.06513e-02,-1.49304e-01,
-1.58377e-02,4.85961e-01,-3.12429e-01,1.25696e-01,5.52879e-01,8.98122e-02,6.92120e-02,4.21467e-01,-6.46141e-02,6.47789e-01,4.04187e-01,-3.92315e-01,3.77106e-01,-4.14219e-01,-3.57895e-01,4.92179e-01,6.56654e-01,-3.25098e-01,4.67618e-01,1.34249e-02,-4.70559e-01,-3.88128e-01,3.74376e-01,-3.03171e-01,-4.06524e-02,-5.32261e-01,4.57420e-01,-1.20737e-02,-8.73184e-02,3.22610e-01,4.75473e-01,-2.99243e-03,-9.22031e-02,6.00894e-01,-7.94822e-02,-4.81522e-02,7.77629e-02,-9.75106e-02,-3.96853e-01,4.19230e-01,-3.54679e-01,-1.33361e-01,4.54617e-01,-7.61186e-02,3.64052e-01,4.80103e-01,-3.87352e-01,-3.67697e-01,-1.62133e-01,3.70022e-02,5.17933e-02,-8.81741e-02,-4.27644e-01,1.74779e-02,3.21045e-02,3.68632e-01,-4.62352e-01,6.09646e-01,4.56407e-01,-2.79571e-01,
-1.18498e-01,5.39302e-01,-5.60047e-01,6.31241e-02,5.50291e-01,1.04614e-01,-5.02232e-02,4.59364e-01,-7.56337e-02,7.15073e-01,5.23662e-01,-3.20111e-01,5.20774e-01,-4.94688e-01,-3.10658e-01,3.91257e-01,6.97917e-01,-3.40301e-01,5.57608e-01,-1.64555e-02,-4.31782e-01,-2.06379e-01,4.44881e-01,-3.48384e-01,4.84896e-03,-4.15100e-01,4.96588e-01,1.09628e-01,1.04134e-02,3.80552e-01,4.39039e-01,5.89986e-02,9.46910e-02,4.55104e-01,-1.26404e-01,1.94281e-01,-6.34535e-02,7.83941e-02,-4.17391e-01,7.78166e-01,-4.89773e-01,-4.33953e-01,3.76402e-01,6.65642e-02,4.54831e-01,3.71465e-01,-3.65277e-01,-3.93722e-01,-3.22490e-01,-2.76708e-02,-3.83066e-02,4.00336e-03,-3.46210e-01,-4.44447e-01,-9.50284e-02,5.41192e-01,-3.48595e-01,6.66423e-01,5.04697e-01,-4.10854e-01,
2.81873e-02,-2.33650e-01,2.12724e-01,-3.31301e-02,-2.73395e-01,-6.05807e-02,-1.28643e-01,-3.41843e-01,1.36752e-02,-1.44564e-01,-1.68007e-01,5.50814e-01,-1.98281e-01,4.79294e-01,4.05139e-01,-2.43524e-01,1.03680e-01,1.91799e-01,-2.43784e-01,-1.34106e-01,3.45979e-01,6.00612e-01,-4.17173e-01,4.94864e-01,-3.57655e-02,5.87876e-01,-2.85900e-01,-1.16738e-01,-4.47621e-02,-2.01325e-01,-1.67870e-01,-1.12596e-01,-4.62223e-02,-1.10895e-01,-6.98797e-02,-3.68934e-01,-8.05878e-02,7.24226e-02,2.00689e-01,-3.90256e-01,5.43530e-01,2.30187e-01,-2.90532e-01,-9.36270e-02,-3.65781e-01,-2.39376e-01,3.44864e-01,4.99744e-01,6.02818e-02,8.57269e-02,-8.39756e-02,-1.11922e-01,2.48615e-01,1.17628e-02,-3.79566e-02,-2.99474e-01,3.20439e-01,-4.29153e-02,-3.91766e-01,5.90569e-01,
3.72251e-02,5.51368e-01,-7.23644e-01,-5.32747e-02,6.50552e-01,-1.44053e-02,7.91528e-02,5.47587e-01,8.20909e-03,5.71099e-01,6.40552e-01,-1.03110e-01,6.15269e-01,-3.64196e-01,-6.12296e-01,6.18124e-01,6.61812e-01,-4.34753e-01,6.56275e-01,8.55544e-02,-6.66110e-01,-2.74946e-01,6.88519e-01,-2.35897e-01,6.22956e-02,-1.95979e-01,6.29959e-01,1.69784e-02,8.09344e-02,6.36261e-01,7.31605e-01,-5.84132e-03,7.21615e-02,4.23280e-01,-3.14179e-02,5.04191e-01,-1.29686e-01,-9.09326e-02,-5.08010e-01,6.97357e-01,-3.13228e-01,-5.45802e-01,5.94372e-01,1.06051e-01,6.23521e-01,4.25260e-01,-6.70272e-01,-4.04086e-01,-9.90845e-01,9.45693e-02,5.57488e-02,-9.38946e-02,-4.43372e-01,-9.20416e-01,1.27226e-01,6.57563e-01,-4.97790e-01,4.71270e-01,5.45621e-01,-2.46537e-01,
1.23737e-01,6.02758e-01,-4.74994e-01,-3.21343e-02,8.22992e-01,-1.17499e-01,2.26884e-02,6.13715e-01,4.38119e-02,7.93405e-01,5.07924e-01,-1.25368e-01,5.77025e-01,-4.74877e-01,-4.44970e-01,4.63678e-01,5.13071e-01,-5.14482e-01,6.52540e-01,-1.35686e-01,-4.43209e-01,-4.65949e-01,6.60462e-01,-1.01793e-01,-1.00796e-01,3.50960e-02,4.62874e-01,-7.60324e-02,-8.86111e-02,4.88730e-01,5.61351e-01,-1.07188e-01,-9.03765e-03,2.66331e-01,-8.85911e-02,3.75924e-01,5.24488e-02,-5.77270e-02,-5.81473e-01,6.22356e-01,-3.72256e-01,-6.39071e-01,7.99685e-01,9.29409e-02,5.01581e-01,6.44321e-01,-4.68265e-01,-5.36100e-01,-8.41258e-01,-3.48563e-02,7.99156e-02,7.31630e-02,-6.61751e-01,-1.09919e+00,-1.39408e-02,4.93463e-01,-6.12681e-01,4.80243e-01,4.92783e-01,-5.08573e-01,
-1.16251e-01,3.02931e-01,-3.12544e-01,3.30138e-02,5.48194e-01,4.87369e-02,1.14150e-01,3.07217e-01,-1.23297e-01,3.58079e-01,4.46295e-01,8.89891e-03,4.08355e-01,-2.81878e-01,-2.88240e-01,3.31502e-01,1.95019e-01,-2.94442e-01,4.66252e-01,-4.13130e-02,-2.28531e-01,-2.11951e-01,2.95648e-01,-1.03530e-01,5.98218e-02,4.30389e-02,4.92853e-01,1.03333e-01,-8.82468e-02,2.93363e-01,4.42906e-01,-4.97450e-02,-5.46696e-02,-8.83263e-03,-9.77352e-02,5.22956e-01,-1.48522e-02,-1.09111e-01,-3.33236e-01,2.48305e-01,-4.14110e-01,-4.21962e-01,5.63226e-01,1.02414e-01,4.54866e-01,3.39110e-01,-3.11019e-01,-3.49633e-01,-6.04803e-01,-1.00723e-02,1.01277e-01,6.59357e-03,-3.58180e-01,-8.04653e-01,8.01780e-02,4.47171e-01,-2.74070e-01,3.99585e-03,7.85929e-02,6.03688e-02,
-3.98627e-03,4.45610e-01,-3.80681e-01,7.49993e-02,4.40545e-01,2.51983e-02,4.06384e-02,2.23503e-01,-1.17477e-01,1.72342e-01,3.89760e-01,1.05881e-01,7.93866e-02,-1.73296e-01,-4.45119e-01,3.54195e-01,2.58723e-01,-3.94471e-01,2.78503e-01,-1.06453e-01,-3.85056e-01,-3.11466e-01,2.83990e-01,-1.25122e-01,-1.07255e-01,-9.95804e-02,4.49400e-01,1.09331e-01,3.22881e-02,5.75080e-01,5.15312e-01,7.24944e-02,-7.23581e-03,1.66277e-01,1.19897e-01,8.29537e-01,1.26921e-02,-1.78671e-02,-1.31841e-01,-1.02186e-01,1.07826e-01,1.68592e-02,2.44003e-01,-3.28358e-03,2.72577e-01,3.16393e-01,-3.95041e-01,-2.58549e-01,-6.72080e-01,-1.14445e-01,5.64238e-02,5.72372e-02,-2.40283e-01,-6.27530e-01,7.35547e-02,3.73691e-01,-3.02319e-01,-4.46202e-02,-7.49806e-02,1.31166e-01,
9.15438e-02,-5.06443e-02,1.99295e-01,6.91624e-02,-1.87654e-01,9.51585e-02,9.20817e-02,-1.23987e-02,5.91842e-02,3.52350e-02,-3.07204e-01,3.76745e-01,-7.14054e-01,2.44766e-01,6.01254e-02,-2.15779e-01,-4.18207e-02,2.23112e-01,-9.58292e-02,3.17458e-03,2.44967e-01,3.18979e-01,-2.21796e-01,1.98361e-01,9.06208e-02,3.11434e-01,-1.17772e-01,-1.32806e-02,4.08668e-02,-1.77330e-01,-2.10786e-02,-1.51989e-02,-1.08614e-01,-4.23381e-01,1.10859e-01,5.09563e-01,-5.97079e-02,-9.10112e-02,2.47567e-01,-8.35548e-01,3.25356e-01,3.66528e-01,-2.52766e-01,-1.30132e-01,-2.36678e-04,-2.57551e-01,1.42512e-01,2.21604e-01,7.03606e-02,3.19459e-02,3.06032e-02,7.91497e-02,2.70939e-01,-1.48718e-01,-9.35786e-02,-7.51192e-02,1.21793e-01,-3.11135e-01,-5.12019e-01,1.15837e-01,
1.00871e-01,1.54526e-01,-2.26562e-01,5.00916e-02,1.54391e-01,1.35438e-03,-1.14563e-01,7.95108e-02,6.71652e-02,3.07283e-01,3.37124e-01,-8.22205e-02,-3.88985e-01,-1.67474e-01,-2.59589e-01,3.10336e-01,-6.71618e-02,-1.93587e-01,1.21407e-01,8.97380e-02,7.93758e-04,-1.21784e-01,1.45695e-01,-3.40651e-02,-4.96019e-02,-7.89131e-02,2.77253e-01,-8.15957e-02,7.31895e-02,2.23379e-01,1.75749e-01,-7.53771e-03,1.97614e-02,-2.48509e-01,-2.31069e-02,6.90438e-01,-9.74124e-02,3.05630e-03,-1.32726e-01,-4.36300e-01,-9.72672e-02,-2.57602e-01,7.14210e-02,-1.41203e-02,1.70401e-01,4.73560e-02,-1.90278e-01,-1.11431e-01,-4.19018e-01,1.11513e-01,-3.80544e-02,-9.07299e-02,-2.46510e-01,-2.84415e-01,-4.99128e-02,1.83557e-01,-6.96427e-02,-3.58667e-01,-2.93445e-01,6.79040e-03,
-2.69865e-03,-3.99329e-01,7.35322e-01,7.20552e-02,-2.10914e-01,-2.47512e-02,-9.61307e-02,-4.11140e-01,8.05324e-02,-1.75866e-01,-2.79632e-01,-1.04605e-01,-3.66960e-01,3.20608e-01,3.79142e-01,-3.88920e-01,4.58697e-02,3.62675e-01,-1.82340e-01,8.22810e-02,3.72190e-01,-1.05318e-01,-2.78072e-01,1.35776e-02,5.26209e-02,-1.78066e-02,-2.45323e-01,1.12531e-01,8.34378e-02,-4.48677e-01,-2.46686e-01,-7.56021e-02,2.43188e-02,-3.32282e-01,1.09006e-01,-2.13454e-01,-7.31705e-03,-3.78061e-02,2.72101e-01,-5.83013e-01,2.75925e-01,5.62733e-01,-3.60249e-01,-5.54830e-02,-2.46677e-01,-2.48447e-01,3.47252e-01,3.17641e-01,5.19740e-01,1.85397e-03,-5.16292e-02,2.80048e-02,4.19305e-01,8.82990e-01,-1.03327e-01,-3.88375e-01,2.83353e-01,-2.32493e-01,-6.34979e-01,4.61838e-01,
7.64914e-02,3.57457e-01,-5.22900e-01,2.95971e-02,2.84086e-01,3.00073e-02,-1.06329e-01,2.92835e-01,1.02860e-01,3.87454e-01,4.80971e-01,2.45161e-01,-9.06770e-02,-5.48205e-01,-3.21522e-01,2.70674e-01,2.67585e-01,-2.26816e-01,2.75023e-01,-1.13529e-01,-3.77644e-01,-2.42963e-01,4.63530e-01,1.20166e-01,2.50370e-02,4.33036e-02,4.77047e-01,1.22691e-01,5.16173e-02,3.64607e-01,3.64574e-01,-1.08681e-01,5.72611e-02,-2.48571e-01,-6.21557e-02,9.89984e-01,-4.23659e-02,-1.05958e-02,-3.73543e-01,-2.99071e-01,-3.33914e-01,-5.01359e-01,3.65346e-01,-5.12718e-02,3.50067e-01,3.79182e-01,-3.53242e-01,-1.95934e-01,-5.98616e-01,3.20539e-02,-1.32483e-01,1.26535e-01,-3.38770e-01,-8.18545e-01,9.12144e-02,2.90949e-01,-3.17214e-01,-1.80581e-01,-1.54496e-01,-2.68557e-01,
1.26147e-01,6.08911e-01,-4.06951e-01,-1.20372e-01,6.74108e-01,7.19316e-02,4.96219e-02,5.22137e-01,9.41402e-02,2.82227e-01,5.38106e-01,-2.10817e-01,-1.31563e-01,-1.39437e-01,-3.76858e-01,4.50468e-01,5.19898e-02,-4.23579e-01,5.39678e-01,4.08519e-02,-5.80591e-01,-4.81033e-01,5.36387e-01,-2.68329e-01,2.04400e-02,-4.41610e-01,4.08335e-01,3.32686e-02,-7.59763e-02,6.70916e-01,5.42665e-01,2.76175e-03,4.93103e-02,3.29725e-02,8.34214e-02,1.12562e+00,-4.99822e-02,-3.27702e-02,-4.02057e-01,-5.02114e-01,-3.72861e-01,-4.21188e-01,4.31132e-01,9.29843e-03,4.18606e-01,4.14956e-01,-4.91557e-01,-5.54087e-01,-5.35624e-01,1.18654e-01,4.99092e-02,7.15750e-02,-3.74489e-01,-4.43470e-01,6.86174e-02,5.28525e-01,-5.64459e-01,1.55282e-01,-2.32732e-01,-1.34635e-01,
-3.48144e-02,4.85751e-01,-1.39703e-01,-1.48999e-04,5.10696e-01,-3.93895e-02,5.49691e-02,3.25633e-01,-1.04277e-01,-8.88365e-02,5.69321e-01,-3.77242e-01,-2.34993e-01,2.37567e-01,-3.42466e-01,2.63892e-01,1.40370e-01,-4.00135e-01,3.31701e-01,-3.02396e-02,-3.30030e-01,-1.61213e-01,3.18246e-01,-4.11920e-01,-3.28744e-02,-3.31279e-01,2.95873e-01,7.85107e-02,-8.68641e-02,5.16271e-01,3.48814e-01,1.22042e-02,5.09562e-02,3.36730e-01,-7.68503e-02,7.37213e-01,-1.05608e-01,3.26924e-02,-2.63759e-01,-5.44523e-01,-2.68046e-03,-2.85339e-01,3.64541e-01,1.21982e-01,3.63424e-01,4.01015e-01,-3.34285e-01,-4.47138e-01,-4.12584e-01,-5.75933e-02,1.10917e-01,-1.07828e-01,-3.21387e-01,-1.99738e-01,-1.00658e-01,3.69929e-01,-2.79665e-01,1.59542e-01,-2.35676e-01,3.40188e-01,
-1.97976e-03,
-6.63166e-03,
7.66950e-02,
-1.08627e-01,
-2.36026e-01,
-7.63918e-02,
-7.07808e-02,
-9.98517e-02,
-8.40907e-02,
-6.37515e-02,
-1.29300e-01,
3.06180e-01,
-3.20483e-01,
2.73015e-01,
1.87768e-01,
-2.94336e-02,
-4.54008e-02,
9.49102e-02,
-5.48925e-02,
1.14937e-01,
1.98347e-01,
1.20814e-01,
-1.81391e-01,
1.89846e-01,
2.75120e-02,
1.36049e-01,
4.55544e-03,
-9.13746e-02,
-1.10705e-01,
-9.60976e-02,
-1.51813e-01,
5.17600e-02,
-5.79345e-02,
-2.75154e-01,
2.31055e-02,
1.20724e-01,
9.11192e-02,
-1.85375e-02,
2.25969e-01,
-2.76733e-01,
2.60991e-01,
1.84991e-01,
-1.95841e-01,
2.70829e-02,
-3.41996e-02,
-4.77800e-02,
2.46426e-01,
2.60915e-01,
2.77199e-01,
3.18994e-02,
-8.03375e-02,
5.06953e-02,
2.00196e-01,
-1.16817e-01,
-3.14295e-02,
-4.05147e-02,
2.95811e-01,
-2.36882e-01,
-3.52239e-01,
3.45395e-01,
-8.24724e-02,-2.61006e-01,6.81709e-01,-1.22848e-02,-3.17431e-01,-1.11687e-01,8.27121e-02,-2.99747e-01,9.89030e-02,-9.84307e-01,-4.97701e-01,7.68939e-01,-8.92475e-01,1.22133e+00,3.37049e-01,-2.91690e-01,-1.07471e+00,2.46700e-01,-3.62691e-01,1.13117e-01,4.34035e-01,4.89066e-01,-3.92118e-01,5.54503e-01,-1.06796e-01,6.39424e-01,-3.24296e-01,-1.17702e-03,1.59175e-02,-3.06574e-01,-2.30179e-01,9.61321e-02,4.28546e-02,-1.15276e+00,-5.28064e-02,-1.12615e+00,-5.72010e-02,9.48242e-02,6.79333e-01,-8.32052e-01,1.07012e+00,6.43241e-01,-5.51586e-01,8.14726e-02,-2.39313e-01,-4.25466e-01,4.43767e-01,6.37431e-01,1.01182e+00,-1.09025e-01,-3.51962e-02,-4.73173e-02,3.58493e-01,1.09606e+00,-6.51416e-02,-2.06472e-01,4.03027e-01,-1.19838e+00,-3.79533e-01,1.30475e+00,
5.44120e-02,
